{"SEQL.0.weight": [[0.2748377025127411, -0.5265584588050842, -2.0978429317474365, -0.9161134362220764], [0.40935009717941284, -0.11671119928359985, -0.5418074131011963, -0.12610380351543427], [0.2940623164176941, -0.5583364367485046, -0.6834033727645874, 0.2841860353946686], [-0.009240865707397461, -0.11776500940322876, -0.11946046352386475, -0.009185850620269775], [0.6959128379821777, -0.2646164000034332, -2.1948142051696777, -0.7940350770950317], [-0.7140035033226013, 0.6439102292060852, 2.077512502670288, 0.7616795897483826], [0.3533429503440857, -0.17013180255889893, -2.2160491943359375, -0.8814958930015564], [-0.6894568204879761, -0.07995256036520004, 2.244682788848877, 0.903166651725769], [-0.8036385774612427, 0.08967842161655426, 1.680373191833496, 0.3313444256782532], [-0.5949591994285583, 0.5921063423156738, 1.455211877822876, 0.8729735016822815], [-0.41061779856681824, 0.33259278535842896, -0.23083630204200745, 0.2205444574356079], [-0.5127057433128357, 0.31216683983802795, 1.3258814811706543, 0.6327333450317383], [0.7511950135231018, -0.29740360379219055, -1.55199134349823, -0.9802271723747253], [-0.8108263611793518, 0.7646891474723816, 1.4123328924179077, -0.38247624039649963], [-0.03491618111729622, 0.042080771178007126, 1.3558803796768188, 0.7266415953636169], [-0.42596691846847534, -0.4457333981990814, -0.6205381751060486, 0.3685084879398346], [-0.5502099394798279, -0.09151683747768402, 0.6789263486862183, 0.08655303716659546], [-0.29213541746139526, 0.21296963095664978, 2.030426263809204, 0.7945427894592285], [0.37802180647850037, -0.3584095239639282, -2.0886316299438477, -0.8979637622833252], [0.7711794972419739, -0.3979117274284363, -1.4194977283477783, -0.7218446135520935], [-0.27900615334510803, 0.3274291753768921, 1.6031330823898315, 0.9797365665435791], [0.3856428265571594, -0.5030732154846191, -1.53825843334198, -0.6550070643424988], [0.38722988963127136, -0.025735830888152122, -2.243025302886963, -0.7303881645202637], [0.6398399472236633, 0.3098994195461273, -0.28552868962287903, 0.09768756479024887], [-0.2472243458032608, 0.38540858030319214, 1.5158815383911133, 0.7995132803916931], [0.02978433668613434, 0.7737323045730591, 0.849101185798645, -0.268859326839447], [-0.8021584153175354, 0.1508673131465912, 1.5977615118026733, 0.4388714134693146], [-0.40335822105407715, 0.15109790861606598, 2.012131929397583, 0.9399662613868713], [-0.31472399830818176, 0.3220929205417633, 1.3621692657470703, 0.8580313324928284], [0.11796867847442627, -0.8699331879615784, -0.9865257143974304, 0.354499489068985], [-0.6791582107543945, 0.04243558272719383, 2.3768575191497803, 0.9098756313323975], [-0.11162051558494568, 0.39596062898635864, 0.6309693455696106, -0.2469056397676468], [-0.37828460335731506, -0.15447741746902466, 1.4962199926376343, 0.5948411822319031], [0.6949988603591919, 0.11528189480304718, 0.10080429166555405, -0.2810569405555725], [0.4284111559391022, -0.14752966165542603, -1.5330572128295898, -0.7036007642745972], [0.5254191160202026, -0.6730407476425171, -1.4465384483337402, -0.7720374464988708], [-0.41058778762817383, -0.11333796381950378, 2.0156805515289307, 0.44782352447509766], [-0.4329826533794403, 0.38187265396118164, 0.8056089282035828, 0.6109596490859985], [-0.3997587263584137, -0.45497286319732666, -0.09346712380647659, -0.4214913845062256], [-0.619770884513855, 0.45207229256629944, 1.8429360389709473, 0.8241741061210632], [0.4551059305667877, -0.46675562858581543, -2.0011093616485596, -0.9363889694213867], [0.16649571061134338, -0.1519947350025177, -0.0022363101597875357, -0.42944809794425964], [0.4468293786048889, -0.35994428396224976, -0.36659085750579834, -0.21735712885856628], [0.06611216068267822, -0.1485491394996643, -0.055605292320251465, -0.08975034952163696], [-0.42757996916770935, 0.3082934021949768, 1.0098892450332642, 0.5198550224304199], [-0.25645551085472107, 0.03328080475330353, -0.551684558391571, -0.33779552578926086], [0.3125685453414917, -0.32344669103622437, -1.7909783124923706, -0.8662952184677124], [-0.7240176796913147, 0.7437779903411865, 1.6620419025421143, 0.8657726049423218], [0.4011194109916687, 0.14783671498298645, -0.3751087486743927, 0.13516367971897125], [0.38567015528678894, -0.440864235162735, -1.3037028312683105, -0.874889612197876], [-0.6994193196296692, 0.7014610767364502, 1.7022171020507812, 0.7874370217323303], [1.4604172706604004, -0.4789755940437317, -1.788657784461975, -0.9725523591041565], [-0.0736151859164238, 0.10331031680107117, 0.09016311168670654, -0.18119189143180847], [-0.6057441234588623, -0.46672067046165466, -0.3531940281391144, -0.05688544735312462], [0.8228747844696045, -0.11728568375110626, -2.4329676628112793, -0.9193710088729858], [-0.6000728607177734, 0.17209824919700623, 0.80539870262146, 0.4571644961833954], [-0.07364567369222641, -0.24558360874652863, -0.4362170994281769, -0.05358518287539482], [-0.09349685907363892, 0.1566738337278366, 2.024049997329712, 0.6582682132720947], [0.2667575180530548, -0.3423578143119812, -2.2929439544677734, -0.9335122108459473], [0.13254959881305695, 0.4161538779735565, 0.059363607317209244, -0.220192089676857], [-0.18981559574604034, 0.0527588315308094, -0.35175004601478577, -0.4928129017353058], [-0.07619775831699371, 0.5347809791564941, 1.1156301498413086, -0.5102559924125671], [-0.7181233763694763, -0.15298843383789062, -0.5028697848320007, 0.10000260919332504], [0.04971747100353241, -0.26594534516334534, 0.06601092219352722, 0.03585363179445267], [0.48765450716018677, -0.3775622844696045, -1.1362892389297485, 0.3273327648639679], [-0.7602476477622986, -0.031149012967944145, 1.4430700540542603, 0.5499994158744812], [0.5404818058013916, 0.3358781337738037, 0.2929852306842804, 0.33104243874549866], [-0.5602120757102966, 0.35614925622940063, 1.2430247068405151, 0.7031855583190918], [-0.711759626865387, -0.02041236124932766, 0.8284419178962708, 0.2625553011894226], [-0.1984475702047348, 0.3734672963619232, 0.4526841640472412, 0.11417251080274582], [-0.5049689412117004, -0.07922258973121643, 1.9841129779815674, 0.5073996782302856], [-0.4996955692768097, 0.5796980261802673, 1.028730034828186, -0.19775402545928955], [-0.3876464366912842, 0.2702174186706543, 0.23964697122573853, 0.5014265775680542], [-0.30749770998954773, -0.308922678232193, -0.3674774169921875, 0.2689943015575409], [-0.3921620845794678, 0.5155696272850037, 1.871407389640808, 0.8536577224731445], [-0.49780988693237305, 0.16489076614379883, 1.4454203844070435, 0.9586693644523621], [-0.03442392125725746, 0.19420546293258667, 1.621726632118225, 0.6507388949394226], [-0.631077229976654, 0.5870778560638428, 1.8331407308578491, 0.7354126572608948], [-0.9562156200408936, 0.5632479190826416, 1.6786428689956665, 0.8972308039665222], [0.4733099937438965, -0.4675716459751129, -1.8025091886520386, -0.829208493232727], [-0.11625515669584274, 0.2229660153388977, 1.4372458457946777, 0.7926826477050781], [0.014292784966528416, 0.48479917645454407, 0.6289396286010742, -0.08568532764911652], [-0.23367998003959656, 0.20755687355995178, 1.0057300329208374, 0.34932106733322144], [-0.2786366045475006, 0.013764003291726112, 0.1731080561876297, 0.08769188076257706], [0.5214100480079651, -0.08731955289840698, 0.22175757586956024, 0.05904986336827278], [0.5793034434318542, 0.17176403105258942, 0.05167478322982788, 0.06793203204870224], [0.6479467153549194, -0.02634473703801632, 0.14876247942447662, 0.459242582321167], [-0.16098082065582275, -0.2074010819196701, -0.5363891124725342, -0.2442355901002884], [-0.8018353581428528, 0.5762275457382202, 1.1794463396072388, -0.33079794049263], [-0.046246036887168884, 0.439856618642807, 0.7986384630203247, 0.1355818659067154], [0.4774695932865143, -0.48271989822387695, -1.7095197439193726, -0.7687332630157471], [-0.3791779577732086, 0.30880025029182434, 0.44559475779533386, 0.13735762238502502], [-0.04886250197887421, -0.3865654468536377, -0.19176532328128815, 0.3037204444408417], [0.11856205761432648, -0.3615591824054718, -0.7922473549842834, 0.19805601239204407], [0.13068749010562897, 0.4903474450111389, 0.8714179396629333, 0.35098564624786377], [0.6962364912033081, -0.08896539360284805, -2.0939037799835205, -0.8973082304000854], [0.47263240814208984, 0.02752145566046238, -1.9710962772369385, -0.8150377869606018], [0.43042343854904175, -0.11037077009677887, -0.12054350227117538, -0.1151450127363205], [0.029439566656947136, -0.11135292798280716, 2.0126395225524902, 0.48451855778694153], [0.6723654866218567, -0.8963990807533264, -0.8894528746604919, 0.248022198677063], [0.07390514761209488, -0.6897457242012024, -1.174293875694275, 0.2846759259700775], [0.7565670013427734, -0.863467812538147, -0.5120406150817871, 0.020453592762351036], [-0.5836679339408875, -0.3291744589805603, -0.20013317465782166, -0.09034214913845062], [-0.777646541595459, 0.413295179605484, 1.2542483806610107, 0.8066219687461853], [0.12043032795190811, 0.3968455493450165, -0.30870845913887024, -0.2656017541885376], [0.07597300410270691, -0.09044934809207916, 0.022381504997611046, -0.03053968772292137], [-1.0230637788772583, 0.11344087868928909, 2.0825483798980713, 1.3181902170181274], [0.6785145401954651, -0.41735249757766724, 0.28946617245674133, -0.021740196272730827], [0.6986249089241028, -0.846050500869751, -1.0253750085830688, 0.28502142429351807], [0.31776341795921326, -0.4893798828125, -1.7856416702270508, -0.7655162811279297], [-0.5710995197296143, 0.6119419932365417, 1.5812458992004395, 0.7085211873054504], [0.6266714930534363, 0.106430284678936, 0.20191559195518494, -0.21615515649318695], [0.025494800880551338, 0.28826233744621277, 0.3788604438304901, -0.2229774296283722], [0.0344700962305069, 0.2452232390642166, 0.4042074382305145, 0.5084226727485657], [0.8648777008056641, -0.9067068099975586, -3.8423025608062744, -2.1139731407165527], [-0.6914901733398438, 0.7198240160942078, 0.9222186207771301, -0.11102734506130219], [0.4193088710308075, -0.5872892141342163, -1.7383662462234497, -0.9514086842536926], [-0.7158629298210144, -0.23687346279621124, 2.8328161239624023, 1.6504220962524414], [-0.2966744303703308, -0.30184826254844666, 0.4123997986316681, -0.22874677181243896], [-0.5614562630653381, 0.6865137815475464, 0.48537349700927734, -0.30068182945251465], [-0.06830763071775436, -0.17145471274852753, -0.48440834879875183, -0.22392147779464722], [0.6554767489433289, -0.22799819707870483, -1.7886707782745361, -0.6931569576263428], [-0.63494873046875, 0.03103744424879551, 2.0623326301574707, 0.5230476260185242], [-0.535243034362793, 0.7094622850418091, 0.8015493750572205, -0.07942648977041245], [0.5691463947296143, 0.15593303740024567, -1.9511370658874512, -0.7607893943786621], [0.20036911964416504, -0.34195676445961, -0.34933212399482727, -0.38083896040916443], [-0.7357174754142761, 0.5137324333190918, 1.582777738571167, 0.8509126305580139], [-0.48877468705177307, -0.5484862923622131, -0.23615673184394836, -0.25970396399497986]], "SEQL.0.bias": [-0.12359627336263657, 0.9054802656173706, 1.042017936706543, -0.4331488609313965, -0.479092538356781, 0.19505789875984192, -0.04520022124052048, -0.09883292019367218, -0.17262710630893707, -0.2880691587924957, -0.31214237213134766, -0.24964605271816254, 0.0027688262052834034, 0.14591823518276215, -0.4147467315196991, 1.1423888206481934, 0.9384366869926453, -0.26656773686408997, -0.291472852230072, -0.3599342107772827, -0.003923091106116772, -0.15102076530456543, -0.18365173041820526, 0.9345143437385559, -0.238388791680336, 1.0603598356246948, -0.22784341871738434, -0.24123822152614594, 0.001255813054740429, 0.4711124300956726, 0.1655406802892685, 1.0609313249588013, -0.4719064235687256, 1.201184630393982, -0.43453481793403625, 0.010537154972553253, -0.34524106979370117, 1.1881024837493896, 0.9313154816627502, -0.33722877502441406, -0.43133994936943054, 1.0042601823806763, 0.9931771755218506, -0.4249371886253357, 1.112910509109497, 1.2726569175720215, -0.15182358026504517, 0.19163164496421814, -0.230619415640831, -0.33946692943573, 0.1460079550743103, 1.504972219467163, 1.1154857873916626, -0.08611433207988739, 0.23396393656730652, 1.0036965608596802, 1.0063974857330322, -0.1273152083158493, 0.08406267315149307, 1.2478742599487305, 1.1643787622451782, 0.7236657738685608, -0.4083631932735443, 1.2257764339447021, 0.518517792224884, -0.3881201446056366, 0.9163153171539307, -0.3138962388038635, 0.9792028665542603, 0.9635798931121826, -0.28175216913223267, 0.5235959887504578, 1.1770049333572388, 1.1133644580841064, -0.27745702862739563, -0.022214187309145927, -0.32313376665115356, -0.17544765770435333, -0.37094324827194214, -0.3617769181728363, -0.2670786678791046, 0.7441920042037964, 0.8129532337188721, 1.233321189880371, 1.0404558181762695, -0.32385313510894775, 1.1513209342956543, 1.093921184539795, 0.34414732456207275, 0.9808560609817505, -0.27458178997039795, -0.35299715399742126, 1.15241277217865, 0.9259686470031738, 1.0341557264328003, -0.3048781156539917, -0.5020920038223267, 0.8799969553947449, -0.356580913066864, 0.21538031101226807, 0.5562253594398499, 0.608045220375061, -0.23648488521575928, -0.09083820879459381, 1.0105326175689697, 1.1189826726913452, 0.5155696868896484, 1.018683910369873, 0.3573741912841797, -0.1625763475894928, -0.06380194425582886, 1.106805443763733, 0.9967201948165894, 1.1766852140426636, 1.145486831665039, 0.4494989812374115, -0.31906944513320923, 1.4510226249694824, -0.1912471055984497, 0.8565524220466614, 1.1729382276535034, -0.048456452786922455, 0.015045924112200737, 0.38060566782951355, -0.5554772615432739, 0.9133962988853455, -0.12624569237232208, 0.9356608986854553], "SEQL.2.weight": [[2.95167875289917, 1.6992439031600952, 0.8944357633590698, -0.0151659632101655, 2.2915353775024414, -3.8867568969726562, 2.8124821186065674, -2.8201069831848145, -2.157810688018799, -2.7056021690368652, -0.02487838640809059, -2.40557861328125, 2.7755188941955566, -0.058791451156139374, -1.1134968996047974, 0.4257199466228485, 0.044896937906742096, -2.8149254322052, 2.7939212322235107, 2.0987977981567383, -2.63616681098938, 2.9287686347961426, 2.765685558319092, 1.1110143661499023, -2.434816837310791, 0.7583603858947754, -1.9825589656829834, -2.779874086380005, -2.7556138038635254, 0.5771344900131226, -2.906841993331909, 0.8586307764053345, -0.7329664826393127, 1.3685815334320068, 1.459932804107666, 3.1676836013793945, -1.5256404876708984, -0.82182776927948, 1.7145042419433594, -3.1240272521972656, 2.5331058502197266, 1.6563888788223267, 1.6856493949890137, -0.03156294301152229, -0.9146667122840881, 1.6429489850997925, 2.9490809440612793, -3.594987630844116, -0.42341524362564087, 2.054069757461548, -3.766104221343994, 2.38533878326416, 1.0945135354995728, 0.5539469122886658, 2.708693265914917, -1.0054962635040283, 1.484458088874817, -2.928981065750122, 2.897874593734741, 1.2118251323699951, 1.6971156597137451, 1.0101733207702637, 0.4960000216960907, 0.8833683133125305, 1.5089974403381348, -0.7172755002975464, -0.09429372847080231, -1.824042797088623, -0.5819248557090759, 0.3021393120288849, -2.108081102371216, 0.07406146079301834, -0.21182949841022491, 0.5434444546699524, -3.023754358291626, -2.618370294570923, -0.9988963007926941, -3.5987138748168945, -2.944103240966797, 2.7033283710479736, -1.8774663209915161, 0.6021912693977356, -1.3884782791137695, 0.6800845861434937, 0.7687581777572632, -0.3272578716278076, 0.06211037188768387, 1.5646564960479736, 0.33230292797088623, 0.006037338636815548, 2.9609954357147217, 0.05921412259340286, 0.37183573842048645, 1.085942029953003, -0.48017603158950806, 2.545475482940674, 1.9224056005477905, 1.442598581314087, -1.284604787826538, 0.7515555024147034, 1.1066125631332397, 1.5606114864349365, 0.4537210464477539, -3.3020846843719482, 1.4789197444915771, 1.107674479484558, -2.26590633392334, 0.9062379002571106, 1.2208380699157715, 3.0740561485290527, -3.4777774810791016, 1.2489049434661865, 1.0423794984817505, -0.19022424519062042, 2.7751550674438477, -0.5116276741027832, 2.659208059310913, -1.8282346725463867, 0.22291815280914307, 1.0103639364242554, 1.62468421459198, 2.9181249141693115, -3.0919063091278076, -0.2967941462993622, 1.6400511264801025, 1.9615079164505005, -3.745748519897461, 1.4684056043624878], [-1.060957670211792, 0.5484819412231445, 0.6417074203491211, 0.05728909373283386, -1.3311560153961182, -0.34226590394973755, -0.69647616147995, -0.407807320356369, -0.9699058532714844, -1.4323887825012207, -4.98032895848155e-05, -0.9524577856063843, -0.6051663756370544, 0.5982691049575806, -0.9224123954772949, 0.5786677598953247, 0.8287501931190491, -0.9242430329322815, -1.2812837362289429, -1.4063000679016113, -0.46838635206222534, -1.4957524538040161, -0.7899147272109985, 0.5703608393669128, -0.9613013863563538, 0.6134088039398193, -1.0247514247894287, -0.652960479259491, -0.42509692907333374, 0.5083425045013428, -0.247538760304451, 0.6843776106834412, -0.9645738005638123, 0.6127375960350037, -1.2409732341766357, -1.0407058000564575, -1.0106534957885742, 0.7516098022460938, 0.4736403822898865, -1.3012771606445312, -1.6240105628967285, 0.6467883586883545, 0.6804574131965637, 0.03886980563402176, 0.7767369747161865, 0.4974097013473511, -0.9715933799743652, -0.4397472143173218, 0.38251936435699463, -1.2077654600143433, -0.5283254981040955, 0.20821070671081543, 0.7300724983215332, 0.31533393263816833, -0.4247998893260956, 0.7832361459732056, 0.5925191044807434, -0.6141862869262695, -0.688962996006012, 0.5386476516723633, 0.4433046877384186, 0.5192063450813293, 0.14256320893764496, 0.6574899554252625, 0.6332007050514221, -0.9949696660041809, 0.6344536542892456, -1.1812541484832764, 0.7570598721504211, 0.7482603192329407, -0.8524655699729919, 0.6280848383903503, 0.7763273119926453, 0.6830456256866455, -1.1795209646224976, -0.3660677671432495, -1.1868969202041626, -1.0781731605529785, -1.4381294250488281, -1.5776293277740479, -0.7618114352226257, 0.7348253726959229, 0.7309046983718872, 0.7061637043952942, 0.7446334362030029, 0.23886236548423767, 0.6554460525512695, 0.6233059167861938, 0.5825706720352173, 0.7890377044677734, -1.429468035697937, 0.03174617514014244, 0.6115024089813232, 0.5332192182540894, 0.8538302779197693, -0.9638447761535645, -0.9201094508171082, 0.6731717586517334, -1.0799634456634521, 0.5652325749397278, 0.6082404255867004, 0.6320887207984924, 0.30133792757987976, -0.6523011922836304, 0.38915130496025085, 0.6925497055053711, -0.09493692964315414, 0.6590229868888855, 0.6667670011520386, -1.2478597164154053, -0.7853785753250122, 0.6272091865539551, 0.6094129085540771, 0.7018850445747375, -0.3269856572151184, 0.7714889049530029, -1.5065160989761353, 0.2615196108818054, 0.39584797620773315, 0.4902006685733795, 0.5418589115142822, -0.7428170442581177, -0.4236188530921936, 0.7467020750045776, -0.9367469549179077, 0.5648074150085449, -0.7468441724777222, 0.5192208886146545], [0.06416840851306915, -0.05205543339252472, -0.04727989807724953, 0.05947187915444374, -0.009839487262070179, -0.06937002390623093, 0.006467493250966072, 0.05261645093560219, 0.04255363345146179, 0.07710012793540955, 0.014052233658730984, -0.07642169296741486, -0.029878005385398865, 0.0698469951748848, 0.06991502642631531, -0.012671805918216705, 0.07701761275529861, -0.0010872241109609604, -0.06504470109939575, -0.02195042371749878, 0.005115014500916004, -0.005322145763784647, -0.09313127398490906, 0.02195758931338787, 0.06847546249628067, 0.03914599120616913, 0.014918118715286255, -0.04994853585958481, -0.07722064852714539, -0.022616054862737656, -0.009980736300349236, -0.03179701417684555, 0.03440986946225166, -0.05597571283578873, -0.07337669283151627, 0.01061990950256586, 0.05975326895713806, -0.027360200881958008, -0.07112010568380356, 0.006451551802456379, -0.0357014462351799, -0.0059569478034973145, 0.08486323803663254, -0.03032829239964485, 0.0014360034838318825, 0.022189002484083176, -0.01837216690182686, -0.018869467079639435, 0.07789918780326843, 0.07584816962480545, -0.0206292737275362, -0.051210563629865646, -0.044310588389635086, -0.045999281108379364, 0.033275410532951355, -0.021952228620648384, -0.01899477280676365, 0.04319936782121658, 0.048628874123096466, -0.09219922125339508, -0.030693627893924713, 0.06486277282238007, -0.03925713524222374, 0.022263647988438606, -0.04271739721298218, -0.07104436308145523, 0.020057693123817444, 0.07014352828264236, -0.07691329717636108, -0.02787245810031891, -0.04159345105290413, 0.02679612673819065, -0.002610695082694292, 0.0011134888045489788, -0.03840139880776405, -0.04994221031665802, -0.056361082941293716, 0.02974325232207775, 0.0003137616440653801, -0.0016365321353077888, -0.04493775591254234, 0.06903835386037827, 0.06792324781417847, 0.030964184552431107, -0.030136622488498688, 0.024091485887765884, -0.022079700604081154, -0.08966483920812607, 0.06474252790212631, 0.07122701406478882, -0.08867097645998001, 0.04844984412193298, 0.05998041853308678, 0.02655249834060669, -0.06538677960634232, -0.033134281635284424, -0.07160449773073196, -0.07770515978336334, 0.010350671596825123, 0.062496818602085114, -0.018955467268824577, 0.007637860719114542, 0.03310976177453995, 0.07014736533164978, -0.07224541902542114, 0.03848132863640785, 0.046544112265110016, -0.011844340711832047, -0.03550272062420845, -0.044345956295728683, -0.016606099903583527, -0.04932926595211029, -0.0581246092915535, -0.02714012935757637, 0.04621654748916626, -0.020230509340763092, 0.01244918443262577, -0.01972874626517296, -0.035394955426454544, 0.017035646364092827, 0.05633076652884483, 0.06759152561426163, -0.0691184252500534, -0.04201921075582504, 0.030156712979078293, -0.016202159225940704, -0.02197881229221821, -0.04587293416261673], [0.03765290975570679, -0.020175959914922714, 0.019786257296800613, 0.06971554458141327, 0.023930516093969345, 0.07582815736532211, -0.040768351405858994, 0.03396228700876236, 0.058059897273778915, 0.04694979637861252, -0.03618718683719635, 0.05836917459964752, 0.02473343536257744, -0.026346195489168167, -0.04026682674884796, 0.0828925296664238, -0.07786779850721359, -0.00515187531709671, -0.06771861761808395, 0.02961115352809429, -0.016753774136304855, -0.07236983627080917, -0.041704483330249786, 0.05857031047344208, 0.019985806196928024, -0.04897694289684296, 0.03488676995038986, 0.026735875755548477, 0.0006277370266616344, 3.1220726668834686e-05, 0.0698208287358284, -0.10185746103525162, 0.01465546153485775, -0.047201693058013916, -0.08773358166217804, -0.008103005588054657, -0.07095236331224442, -0.08363723754882812, -0.08416426181793213, -0.021733108907938004, 0.01008197944611311, -0.05492705851793289, -0.01080041378736496, -0.017185091972351074, -0.08859533816576004, -0.10861475020647049, 0.03398118168115616, -0.03721734136343002, 0.06666188687086105, 0.0003207269764970988, -0.024192366749048233, -0.00974876619875431, -0.0868668332695961, -0.005754129961133003, -0.03549233451485634, 0.06163021922111511, 0.030789867043495178, 0.0441465750336647, -0.08644779771566391, 0.013376638293266296, 0.0028044828213751316, -0.07074829936027527, -0.0517955906689167, -0.050841767340898514, -0.001943567767739296, -0.050617583096027374, 0.07914870977401733, 0.05254124104976654, 0.046367011964321136, -0.06767195463180542, -0.007429354824125767, 0.03471703454852104, -0.06383645534515381, -0.05773703008890152, 0.01829194277524948, -0.051604755222797394, -0.045112013816833496, -0.05005094036459923, -0.07847698032855988, 0.06520749628543854, -0.001320964191108942, 0.05747614800930023, -0.00787111185491085, -0.06997588276863098, -0.08991263061761856, -0.028660772368311882, 0.042518533766269684, -0.05619850382208824, 0.06672822684049606, -0.0534796379506588, -0.031548917293548584, 0.045571163296699524, 0.04902402684092522, -0.022451147437095642, -0.0016331891529262066, -0.04645135626196861, -0.02414422295987606, 0.05902867764234543, 0.06165402755141258, -0.06421735882759094, -0.06643981486558914, 0.04703819006681442, -0.04205278679728508, -0.07248889654874802, 0.0711747407913208, -0.005286673083901405, -0.024172857403755188, -0.039656832814216614, -0.08023685961961746, -0.0267905592918396, -0.036252379417419434, -0.07396484911441803, 0.02138042077422142, -0.012021576054394245, -0.024571359157562256, -0.02278280444443226, 0.03501991182565689, -0.01492395531386137, -0.07505740225315094, -0.003963163122534752, 0.047712404280900955, 0.0005395112675614655, -0.05097639560699463, 0.029855795204639435, 0.0028602853417396545, 0.039816662669181824, -0.001640391070395708, -0.065601646900177], [-0.5506119132041931, 0.4568237066268921, 0.3182315230369568, 0.02330436185002327, -0.6917759776115417, -0.3892951011657715, -0.3421080708503723, -0.29378482699394226, -0.7135770320892334, -0.8707361817359924, -0.02060328796505928, -0.8067374229431152, -0.07818084955215454, 0.3623596429824829, -0.6952188014984131, 0.3988949954509735, 0.32963496446609497, -0.6328245401382446, -0.5315508842468262, -0.6338332891464233, -0.4247702956199646, -0.5454444885253906, -0.3277173936367035, 0.409954309463501, -0.7390207052230835, 0.41446179151535034, -0.6473029851913452, -0.4634103775024414, -0.43986836075782776, 0.27419087290763855, -0.26793766021728516, 0.32992488145828247, -0.5692175030708313, 0.41793397068977356, -0.8143418431282043, -0.24110820889472961, -0.5550588369369507, 0.3754386007785797, 0.45207008719444275, -0.7614104747772217, -0.8252097368240356, 0.35826805233955383, 0.5206112265586853, 0.06303150951862335, 0.27734896540641785, 0.4342431128025055, -0.3705459237098694, -0.41720712184906006, 0.396416574716568, -0.7125486731529236, -0.4649584889411926, 0.2816281020641327, 0.3772798180580139, 0.28577920794487, -0.026358015835285187, 0.30957141518592834, 0.3633463382720947, -0.5999709963798523, -0.21105988323688507, 0.4765603244304657, 0.3790375292301178, 0.2759706974029541, 0.15629534423351288, 0.4542061984539032, 0.3733065724372864, -0.6724544763565063, 0.4253244400024414, -0.8575640916824341, 0.29354754090309143, 0.36614757776260376, -0.496158629655838, 0.3737058937549591, 0.32979854941368103, 0.4175713360309601, -0.88486647605896, -0.3809856176376343, -0.6384977698326111, -0.7847749590873718, -0.7968283295631409, -0.9018058180809021, -0.5134158730506897, 0.31086665391921997, 0.2983067035675049, 0.41793397068977356, 0.39209064841270447, 0.36331215500831604, 0.4949023425579071, 0.39239588379859924, 0.34546130895614624, 0.4085271954536438, -0.6009564399719238, 0.006089921109378338, 0.43871328234672546, 0.4727247655391693, 0.4307746887207031, -0.3784133195877075, -0.713979959487915, 0.5186781287193298, -0.6053918600082397, 0.5092943906784058, 0.44334250688552856, 0.3478766977787018, 0.2338562160730362, -0.4118548631668091, 0.3248686194419861, 0.5052334666252136, -0.22825954854488373, 0.5067704319953918, 0.4250687062740326, -0.6467137336730957, -0.6811206340789795, 0.4596576690673828, 0.32208412885665894, 0.33424970507621765, 0.09066018462181091, 0.4112643301486969, -0.7009232640266418, -0.026215003803372383, 0.33029136061668396, 0.2575817108154297, 0.3860374093055725, -0.15504945814609528, -0.4743494391441345, 0.4137328863143921, -0.634516179561615, 0.5036305785179138, -0.5235937237739563, 0.4947719871997833], [0.03580697253346443, -0.07441648840904236, -0.02495211362838745, -0.022017544135451317, -0.0017600524006411433, -0.04971317946910858, 0.07985225319862366, 0.0026295313145965338, -0.047160688787698746, 0.010600048117339611, -0.017021257430315018, 0.08119054138660431, -0.05511011183261871, -0.07625134289264679, 0.047746531665325165, -0.056339628994464874, 0.06435728818178177, -0.041357215493917465, -0.06436914205551147, -0.009098450653254986, -0.027744144201278687, -0.0513225756585598, 0.012734511867165565, 0.04018903151154518, 0.05630405992269516, -0.08543738722801208, 0.013647307641804218, -0.0767914280295372, 0.0617864765226841, -0.009044356644153595, -0.027688365429639816, 0.020432639867067337, -0.06074223667383194, -0.01413698960095644, 0.03108532354235649, -0.06053408607840538, 0.04312949255108833, 0.01499274093657732, 0.05567773059010506, 0.04579389840364456, 0.06342636793851852, -0.017157912254333496, -0.008851430378854275, 0.06699396669864655, -0.09755580872297287, -0.006094234995543957, 0.06352737545967102, -0.021869339048862457, 0.06485304236412048, -0.044735126197338104, -0.030047155916690826, -0.08269330859184265, 0.015927284955978394, -0.06361373513936996, -0.05484778434038162, -0.0601300448179245, 0.003921935334801674, -0.07441606372594833, -0.022068636491894722, -0.09651504456996918, 0.021890994161367416, -0.07996413111686707, 0.016686316579580307, 0.03330634534358978, 0.01399522926658392, -0.04704560711979866, 0.022927582263946533, -0.013197463937103748, 0.02350018545985222, -0.06874385476112366, 0.02151242457330227, -0.009180706925690174, 0.049296047538518906, -0.014554543420672417, 0.005661659874022007, 0.011554463766515255, 0.05921965092420578, 0.07090979814529419, -0.04739820957183838, 0.013181036338210106, 0.057820290327072144, 0.07682736963033676, -0.07395283877849579, -0.0031235376372933388, -0.05931133031845093, 0.0015623942017555237, 0.010301896370947361, -0.07789494842290878, 0.0225040465593338, 0.05206279084086418, -0.05935229733586311, -0.0468507744371891, 0.03732157498598099, -0.0056487806141376495, 0.07618261873722076, -0.04399241507053375, 0.0138656385242939, 0.05314331501722336, -0.04277951270341873, -0.046389296650886536, 0.004221532493829727, 0.0662727952003479, 0.02607843652367592, -0.07192497700452805, -0.014220739714801311, 0.06934180855751038, -0.06569059938192368, -0.030282534658908844, -0.03869989886879921, -0.03783464431762695, -0.018544960767030716, 0.02165694534778595, -0.01130401436239481, 0.07802291214466095, 0.04383464157581329, -0.05826851353049278, 0.004532882943749428, -0.07881566882133484, -0.06589999049901962, -0.01833915524184704, -0.0013578236103057861, 0.030140696093440056, -0.051088832318782806, 0.03051333874464035, 0.015547487884759903, -0.07987024635076523, 0.02044966071844101, -0.0577230267226696], [-0.9046190977096558, 0.5856092572212219, 0.5012298822402954, -0.030201302841305733, -1.4819327592849731, -0.5781444907188416, -0.6663805842399597, -0.5981642007827759, -1.0131012201309204, -1.4540711641311646, 0.049824025481939316, -0.9382687211036682, -0.48546773195266724, 0.4829883277416229, -0.928225576877594, 0.5095046758651733, 0.6731890439987183, -0.8735933899879456, -1.198023796081543, -1.254361629486084, -0.4345417022705078, -1.351982831954956, -0.7413561344146729, 0.6240673065185547, -0.9884632229804993, 0.6168643832206726, -1.1556869745254517, -0.7869451642036438, -0.49412018060684204, 0.3782579302787781, -0.32440686225891113, 0.615817129611969, -0.7989404797554016, 0.6895995140075684, -1.2686549425125122, -0.8248838782310486, -1.0300315618515015, 0.6291000843048096, 0.4860450327396393, -1.4091476202011108, -1.5885217189788818, 0.6413678526878357, 0.6183041334152222, -0.02005815878510475, 0.587712287902832, 0.5817378163337708, -0.8925307393074036, -0.6964791417121887, 0.33830806612968445, -1.2901504039764404, -0.7556001543998718, 0.29103320837020874, 0.6331589818000793, 0.285128653049469, -0.27198973298072815, 0.6324849724769592, 0.561898946762085, -0.7873497605323792, -0.5637657046318054, 0.6530815362930298, 0.5519894361495972, 0.5399259924888611, 0.30353307723999023, 0.7123931050300598, 0.6914434432983398, -0.9583503603935242, 0.5803359746932983, -1.1687030792236328, 0.5293120741844177, 0.6081289649009705, -0.9548959732055664, 0.5874376893043518, 0.6034517884254456, 0.5065219402313232, -1.383588433265686, -0.40154287219047546, -1.1356780529022217, -1.3618406057357788, -1.4759130477905273, -1.6115901470184326, -0.6980259418487549, 0.5667809247970581, 0.7167314887046814, 0.5955320596694946, 0.6453585624694824, 0.195719912648201, 0.6295193433761597, 0.6038877367973328, 0.6418936252593994, 0.5657739043235779, -1.425220251083374, -0.01708447001874447, 0.5028101801872253, 0.5684133768081665, 0.700480043888092, -0.8722513318061829, -1.016647219657898, 0.5804414749145508, -0.9884450435638428, 0.6774036288261414, 0.6697352528572083, 0.7001472115516663, 0.306631475687027, -0.6842843890190125, 0.47968536615371704, 0.6635999083518982, -0.15714368224143982, 0.7000940442085266, 0.8061115741729736, -1.1980751752853394, -1.0556838512420654, 0.7065021991729736, 0.5602546334266663, 0.6803027987480164, -0.09582925587892532, 0.7041934728622437, -1.4549990892410278, 0.0018935021944344044, 0.4627426564693451, 0.4169928729534149, 0.668934166431427, -0.664749801158905, -0.6304458975791931, 0.6050761938095093, -0.9929453134536743, 0.5383269190788269, -0.8051726818084717, 0.6798303723335266], [-1.1351168155670166, 0.6693903207778931, 0.5866358280181885, -0.03533323109149933, -1.3575493097305298, -0.12584958970546722, -0.760222315788269, -0.1797202229499817, -0.7672713398933411, -1.280835509300232, 0.05386938527226448, -0.9401329159736633, -0.5515839457511902, 0.6873740553855896, -0.9841325879096985, 0.6340062618255615, 0.8511752486228943, -0.6798802018165588, -1.357250690460205, -1.4228742122650146, -0.2248598039150238, -1.4505293369293213, -0.9793710708618164, 0.744580864906311, -0.7871774435043335, 0.5421212315559387, -0.9253036975860596, -0.4760572016239166, -0.26214534044265747, 0.6577296853065491, -0.06016016751527786, 0.6430532336235046, -0.8343019485473633, 0.6185863614082336, -1.3045222759246826, -1.0739659070968628, -0.9712915420532227, 0.9312382936477661, 0.5731115937232971, -1.1567201614379883, -1.642175316810608, 0.47638213634490967, 0.6675854325294495, 0.05855967476963997, 0.8752050995826721, 0.5138965845108032, -1.044997215270996, -0.16133561730384827, 0.3942106366157532, -1.2660114765167236, -0.3032410442829132, 0.12681232392787933, 0.6396479606628418, 0.2697187066078186, -0.4032004177570343, 0.9217022657394409, 0.7304426431655884, -0.41533392667770386, -0.7298588156700134, 0.5685904026031494, 0.4152887761592865, 0.4988398849964142, 0.08125754445791245, 0.7862066626548767, 0.6918185949325562, -0.981490433216095, 0.8260204792022705, -1.281085729598999, 0.7694545984268188, 0.8772097826004028, -0.7476499080657959, 0.7504634261131287, 0.8509289026260376, 0.7054963111877441, -1.1122488975524902, -0.1470755636692047, -1.1345804929733276, -0.9825582504272461, -1.4631448984146118, -1.6848965883255005, -0.6054481863975525, 0.7094170451164246, 0.8657636046409607, 0.7778185606002808, 0.7623787522315979, 0.2347298562526703, 0.7859398126602173, 0.5165051817893982, 0.5814801454544067, 0.8918545842170715, -1.5675321817398071, 0.02712090313434601, 0.6444565653800964, 0.6377743482589722, 0.9074223041534424, -0.8693487048149109, -1.0111713409423828, 0.5965217351913452, -1.1034185886383057, 0.6164541244506836, 0.6914320588111877, 0.6421683430671692, 0.22143296897411346, -0.4146706461906433, 0.348849356174469, 0.7225382328033447, 0.05700791999697685, 0.7933779954910278, 0.7532337307929993, -1.3238146305084229, -0.5829068422317505, 0.5823951363563538, 0.6972054839134216, 0.887204647064209, -0.30225175619125366, 0.8870860934257507, -1.5556234121322632, 0.38944825530052185, 0.3587283492088318, 0.47909173369407654, 0.7154264450073242, -0.7682231068611145, -0.2751218378543854, 0.841845691204071, -0.9707432389259338, 0.5643694400787354, -0.4880436062812805, 0.6113187670707703], [0.14335109293460846, 0.8165855407714844, 0.5592843294143677, -0.004681218881160021, -0.4945548176765442, -1.0621227025985718, 0.307029128074646, -0.5381197929382324, -0.9135725498199463, -1.062259554862976, -0.01223008707165718, -0.7953882217407227, 0.4804554283618927, 0.41941243410110474, -0.31991320848464966, 0.3841060400009155, 0.34492745995521545, -0.7829288244247437, -0.1081031933426857, -0.5251595973968506, -0.7029414772987366, 0.025911539793014526, 0.11140477657318115, 0.5509980320930481, -0.8340774178504944, 0.48520180583000183, -0.7805724143981934, -0.7537012100219727, -0.6956839561462402, 0.5056531429290771, -0.6142217516899109, 0.5893996357917786, -0.141317218542099, 0.6779397130012512, -0.6248343586921692, 0.48384755849838257, -0.4780501127243042, 0.13190338015556335, 0.8438889384269714, -0.967327892780304, -0.5775012373924255, 0.8123028874397278, 0.8103071451187134, -0.01915886066854, 0.06759759038686752, 0.7821640372276306, 0.25616174936294556, -1.1095304489135742, 0.24734820425510406, -0.38409510254859924, -1.0038410425186157, 0.9845845699310303, 0.6800996661186218, 0.6617960333824158, 0.609481930732727, 0.1280377060174942, 0.7222028374671936, -0.8540878891944885, 0.5052168965339661, 0.6587700843811035, 0.666011393070221, 0.5495713353157043, 0.4843082129955292, 0.63086998462677, 0.6358353495597839, -0.33410605788230896, 0.30488207936286926, -0.6915092468261719, 0.18990103900432587, 0.45559442043304443, -0.5679067969322205, 0.32329607009887695, 0.32317543029785156, 0.5182909965515137, -0.9307286143302917, -0.6777883172035217, -0.7189913988113403, -1.0489259958267212, -0.8952370285987854, -0.4894096255302429, -0.6257973909378052, 0.4337077736854553, 0.04547858610749245, 0.5332993865013123, 0.5457361340522766, 0.16990378499031067, 0.36582040786743164, 0.7248769998550415, 0.3603246808052063, 0.33760058879852295, -0.2003040462732315, -0.045424263924360275, 0.4346461296081543, 0.5433601140975952, 0.2507377564907074, 0.029791265726089478, -0.5344709753990173, 0.7600334882736206, -0.5494756698608398, 0.7412729859352112, 0.5509145855903625, 0.6385694146156311, 0.6601862907409668, -0.8313785791397095, 0.6722327470779419, 0.5604913830757141, -0.4876366853713989, 0.6636563539505005, 0.7852984666824341, 0.08376827090978622, -1.0123919248580933, 0.6533166170120239, 0.561392605304718, 0.3426283001899719, 0.7931666374206543, 0.3269706070423126, -0.3024285137653351, -0.3206825256347656, 0.47448405623435974, 0.5076488852500916, 0.6769508123397827, 0.27856576442718506, -0.7569879293441772, 0.3512606918811798, -0.44528016448020935, 0.8571362495422363, -0.9533426761627197, 0.7673798203468323], [-0.4498894214630127, -0.1144217774271965, 0.07300855219364166, 0.05536748096346855, -0.306660532951355, 0.5656470656394958, -0.32924050092697144, 0.4964592456817627, 0.6312426328659058, 0.7529823184013367, -0.07981381565332413, 0.8046845197677612, -0.3021872043609619, 0.07530920952558517, 0.7326277494430542, 0.13133282959461212, 0.16823133826255798, 0.7540067434310913, -0.4078914523124695, -0.16671821475028992, 0.5267288684844971, -0.4603264033794403, -0.3327251970767975, 0.09243334084749222, 0.739674985408783, 0.15641088783740997, 0.7734054327011108, 0.5726032853126526, 0.5480112433433533, -0.054358452558517456, 0.45361241698265076, 0.21763277053833008, 0.6911120414733887, -0.03311970829963684, -0.264545202255249, -0.5134706497192383, 0.6217275261878967, 0.2590482532978058, -0.13467644155025482, 0.7772247195243835, -0.28893566131591797, -0.173557311296463, -0.10912466049194336, -0.030284743756055832, 0.22227178514003754, -0.11266085505485535, -0.3877987563610077, 0.6421224474906921, 0.06576421856880188, -0.3140051066875458, 0.671376645565033, -0.6540889143943787, 0.051947884261608124, -0.17137227952480316, -0.30051788687705994, 0.3126918375492096, 0.08223002403974533, 0.5947012305259705, -0.2942022979259491, 0.00202875561080873, -0.1260904222726822, 0.0418366938829422, -0.20059329271316528, 0.15171733498573303, -0.05626092106103897, 0.5679816603660583, 0.18169525265693665, 0.8674908876419067, 0.27432170510292053, 0.20139531791210175, 0.6987236142158508, 0.2608645558357239, 0.2619644105434418, 0.11955936253070831, 0.8197841048240662, 0.5278163552284241, 0.8063486218452454, 0.7416380047798157, 0.7477971315383911, -0.23371410369873047, 0.655671238899231, 0.2664843499660492, 0.33258646726608276, 0.06950052827596664, 0.16548466682434082, 0.023713815957307816, 0.10869526118040085, -0.08227882534265518, 0.20389385521411896, 0.3130122721195221, -0.36077582836151123, -0.09398043155670166, 0.13344521820545197, 0.02357340417802334, 0.22626014053821564, -0.39604708552360535, -0.14569643139839172, -0.012927699834108353, 0.6384315490722656, -0.014172269031405449, -0.014875324442982674, 0.020266743376851082, -0.1990300416946411, 0.5714811682701111, -0.0011613405076786876, 0.07466945052146912, 0.49336913228034973, 0.11166960000991821, -0.09036354720592499, -0.5424110293388367, 0.770514726638794, 0.0992862805724144, 0.10042067617177963, 0.2719794809818268, -0.6848804950714111, 0.17644473910331726, -0.22715574502944946, 0.43322157859802246, -0.17986741662025452, 0.13433168828487396, -0.039805639535188675, -0.3494566082954407, 0.6560384631156921, 0.2705513834953308, -0.2167655974626541, -0.1355634331703186, 0.6167635917663574, -0.0912078469991684], [-0.6632457971572876, 0.8637806177139282, 0.6115739345550537, 0.057234976440668106, -1.3933838605880737, -0.8896539211273193, -0.2957437336444855, -0.6351918578147888, -1.2461216449737549, -1.5710335969924927, 0.07030757516622543, -0.9295595288276672, -0.2021278589963913, 0.5454383492469788, -0.7420199513435364, 0.48533210158348083, 0.6277005076408386, -0.9028240442276001, -0.947513222694397, -1.2380578517913818, -0.6387225985527039, -1.1597992181777954, -0.5828816294670105, 0.6833978891372681, -1.1102077960968018, 0.6334356069564819, -1.134358286857605, -0.834681510925293, -0.5198127627372742, 0.4038039445877075, -0.4805928170681, 0.5973522067070007, -0.8212043046951294, 0.724366307258606, -1.3196443319320679, -0.5950830578804016, -0.9645249247550964, 0.5069968104362488, 0.6901107430458069, -1.411617398262024, -1.5060598850250244, 0.76113361120224, 0.8128616809844971, -0.07155910134315491, 0.603722095489502, 0.788438081741333, -0.5607709884643555, -0.9060266017913818, 0.38686344027519226, -1.3004134893417358, -0.8752738833427429, 0.4461674690246582, 0.7326263189315796, 0.3549078106880188, -0.10876882821321487, 0.46915772557258606, 0.765674889087677, -0.8125916123390198, -0.2191844880580902, 0.7597166895866394, 0.6948826313018799, 0.5134007334709167, 0.2820006012916565, 0.66904217004776, 0.8411427736282349, -0.9064491987228394, 0.6107106804847717, -1.045374870300293, 0.5464709997177124, 0.5474774837493896, -0.9160052537918091, 0.6833899021148682, 0.5428714752197266, 0.49292120337486267, -1.4728935956954956, -0.48935362696647644, -0.9014318585395813, -1.5185216665267944, -1.49335777759552, -1.439514398574829, -0.755990743637085, 0.6189478635787964, 0.5743287801742554, 0.5928836464881897, 0.6410117149353027, 0.24811406433582306, 0.5834469795227051, 0.824945330619812, 0.5797293782234192, 0.5857178568840027, -1.2537202835083008, 0.06156632676720619, 0.45766112208366394, 0.5927435159683228, 0.6542266607284546, -0.6305279731750488, -0.9082369208335876, 0.8030309081077576, -0.9299412965774536, 0.7156888246536255, 0.5718738436698914, 0.8142088651657104, 0.36730054020881653, -0.8134446740150452, 0.6778119206428528, 0.7016441226005554, -0.3111400306224823, 0.7033228278160095, 0.8677692413330078, -0.970832884311676, -1.2192120552062988, 0.681995689868927, 0.5785899758338928, 0.6725092530250549, 0.1388428807258606, 0.6413934826850891, -1.177284836769104, 0.007030999753624201, 0.39530253410339355, 0.48175740242004395, 0.7914206385612488, -0.48938804864883423, -0.7388506531715393, 0.49569228291511536, -0.9875438809394836, 0.7935110926628113, -1.02212393283844, 0.7770271897315979], [-0.0024226640816777945, -0.06958886981010437, -0.05607239156961441, -0.0026875147596001625, -0.027176961302757263, -0.07408866286277771, -0.018683455884456635, -0.07573744654655457, -0.02390575408935547, -0.054391004145145416, -0.03341664373874664, -0.014938617125153542, 0.020327666774392128, 0.048463575541973114, -0.07674553990364075, -0.029137738049030304, -0.03529850393533707, -0.06390465795993805, -0.06299936026334763, 0.015337870456278324, 0.011582957580685616, 0.04131351038813591, -0.011139938607811928, -0.01882767118513584, -0.06623323261737823, -0.021402716636657715, 0.07570405304431915, 0.02900996431708336, 0.031882330775260925, -0.04029569774866104, -0.04922013729810715, -0.04369138181209564, 0.05866087228059769, -0.016916321590542793, 0.015057740733027458, 0.020191490650177002, -0.010722877457737923, -0.07742924988269806, -0.0803883969783783, 0.04951542615890503, 0.022094326093792915, -0.07046863436698914, -0.01503140851855278, -0.03939962014555931, -0.08578811585903168, -0.07278160750865936, 0.05860649794340134, 0.05625937134027481, -0.08285046368837357, 0.013382751494646072, -7.373862899839878e-05, -0.016206083819270134, -0.06469079852104187, -0.09283262491226196, 0.004187637008726597, -0.05514480918645859, -0.046263180673122406, 0.07354314625263214, -0.056319598108530045, -0.06287071853876114, 0.07958986610174179, 0.030675066635012627, -0.09270179271697998, -0.023144051432609558, -0.03049895167350769, -0.06379398703575134, -0.062408193945884705, -0.08147081732749939, 0.021451931446790695, 0.007961075752973557, 0.07157199084758759, -0.03913196921348572, 0.016972322016954422, 0.043763741850852966, -0.05933781713247299, 0.018263377249240875, 0.059650518000125885, -0.04141949117183685, 0.05193774402141571, 0.08705753087997437, -0.06605297327041626, 0.042072586715221405, 0.01505465991795063, 0.024009473621845245, 0.06920239329338074, 0.01880691386759281, -0.07717572152614594, 0.035735681653022766, -0.066068135201931, 0.025801541283726692, -0.04102460294961929, -0.08521949499845505, 0.06118743121623993, -0.07830549776554108, -0.014284620061516762, -0.06719676405191422, 0.008496393449604511, -0.05655237287282944, 0.05369022488594055, -0.07431864738464355, 0.02257060632109642, 0.02588079497218132, 0.08610379695892334, 0.009778279811143875, -0.05630602687597275, 0.03239501267671585, 0.05103949457406998, 0.0070692552253603935, 0.0558844730257988, 0.039597395807504654, 0.0005093379877507687, -0.007496607024222612, -0.06699392199516296, -0.0157618448138237, 0.06479667872190475, -0.035502027720212936, 0.08331435918807983, 0.02409365028142929, 0.012935560196638107, -0.0346096009016037, -0.08696150779724121, 0.03469114378094673, 0.002936088014394045, -0.08096155524253845, 0.00548321008682251, -0.08317376673221588, 0.05847606807947159, 0.06765376031398773], [-0.018960174173116684, 0.05113523080945015, -0.049050360918045044, 0.07764262706041336, 0.0253928042948246, -0.06112280488014221, -0.07201121002435684, 0.053350016474723816, 0.040223635733127594, -0.05751373618841171, 0.03092699870467186, 0.01427297480404377, 0.07691240310668945, 0.0059479353949427605, -0.05490727350115776, 0.055445097386837006, -0.07113084197044373, -0.08262734860181808, -0.0725434422492981, -0.08837419748306274, -0.009683341719210148, 0.03234219551086426, 0.027347922325134277, 0.026290077716112137, -0.022339031100273132, 0.03610198572278023, 0.0009087333455681801, 0.04175925254821777, -0.0023328540846705437, -0.03250619396567345, -0.029350224882364273, 0.03978680074214935, -0.03518575057387352, 0.052485037595033646, -0.048128850758075714, 0.07196749001741409, 0.050294093787670135, -0.08093489706516266, -0.03325352817773819, 0.05100710317492485, 0.007496838457882404, -0.0442989319562912, -0.07249033451080322, -0.031196506693959236, -0.037106744945049286, -0.008834600448608398, -0.0806109681725502, -0.019612744450569153, -0.06502147018909454, 0.05553064122796059, -0.028965190052986145, -0.03691000118851662, 0.018270865082740784, -0.03619285672903061, 0.033598642796278, 0.015853028744459152, -0.05089249461889267, 0.06204945966601372, -0.049436815083026886, 0.04504912719130516, -0.045904822647571564, -0.08300352096557617, -0.033116716891527176, -0.009921396151185036, -0.08000519871711731, 0.05758830904960632, -0.03627672418951988, 0.018264565616846085, 0.058497264981269836, -0.03854140639305115, 0.0641346201300621, -0.03857175260782242, 0.0100469421595335, 0.01714785397052765, 0.023382840678095818, -0.03872163966298103, -0.07303662598133087, 0.02055932767689228, 0.03843630850315094, 0.05716201290488243, -0.08717891573905945, 0.01967761293053627, 0.03422599658370018, -0.03459244593977928, -0.0800919234752655, -0.03135798126459122, -0.047703150659799576, -0.023724133148789406, 0.030131977051496506, -0.026687227189540863, -0.019664335995912552, -0.05290350317955017, 0.054107870906591415, -0.04829312115907669, 0.054452694952487946, 0.05909392982721329, -0.08882269263267517, 0.018038630485534668, -0.019395247101783752, 0.013344781473279, -0.06560807675123215, 0.005475607234984636, 0.0654260665178299, 0.007827559486031532, 0.039647676050662994, -0.03647652268409729, 0.05566919222474098, -0.08490166068077087, 0.04374530538916588, 0.00016574468463659286, 0.048528313636779785, -0.05946538597345352, 0.0222389567643404, -0.07089795917272568, -0.015677515417337418, 0.016152027994394302, -0.08141814917325974, -0.029909823089838028, -0.020229486748576164, -0.05500088259577751, 0.026421338319778442, 0.007437274791300297, -0.0077887531369924545, 0.053009454160928726, -0.03765999525785446, 0.057181958109140396, 0.04338126629590988, -0.0902271568775177], [-0.006376765202730894, 0.009709016419947147, 0.019763518124818802, 0.06764889508485794, 0.07908029854297638, -0.0048433151096105576, 0.04018130898475647, -0.010896853171288967, 0.07729847729206085, -0.06881682574748993, -0.027369720861315727, 0.03311874344944954, -0.04849541559815407, 0.05338635668158531, 0.07095585763454437, 0.06129669398069382, -0.09699854999780655, 0.0018531223759055138, 0.0016382373869419098, 0.07950426638126373, 0.003746739588677883, 0.023368708789348602, 0.06084287166595459, -0.07910110056400299, -0.01832561194896698, 0.03485976159572601, 1.5910435422483715e-06, -0.01996808871626854, 0.01722518727183342, -0.05724114179611206, 0.0705513283610344, 0.08697599172592163, -0.03714005649089813, -0.006830244325101376, -0.06458711624145508, 0.018883347511291504, -0.032871320843696594, 0.000780169852077961, 0.05694550275802612, 0.004321819171309471, 0.0841694325208664, -0.004292045254260302, -0.0802869200706482, -0.014871505089104176, -0.0615263506770134, 0.07407908886671066, 0.061704881489276886, -0.084673672914505, 0.0843517854809761, -0.051073022186756134, 0.05915888398885727, -0.03796432167291641, -0.05741989612579346, -0.009115246124565601, -0.05388690531253815, 0.03255370259284973, -0.06509089469909668, 0.058717720210552216, -0.003959907218813896, -0.018512222915887833, 0.04408443346619606, -0.028598332777619362, -0.07872811704874039, -0.012155432254076004, 0.03818965703248978, 0.04840822517871857, 0.049310993403196335, 0.014425955712795258, -0.0464174784719944, -0.07014182955026627, -0.04683908820152283, -0.009361837059259415, -0.058227021247148514, -0.042179349809885025, 0.03324178233742714, 0.011739009991288185, 0.019278232008218765, 0.07624455541372299, 0.05278569459915161, 0.05667361244559288, -0.05638377368450165, -0.010998904705047607, 0.00360000878572464, 0.06993131339550018, -0.08667183667421341, -0.058829959481954575, -0.003998883999884129, -0.07537203282117844, -0.08437531441450119, -0.07633533328771591, 0.04470926895737648, -0.06266206502914429, 0.06751633435487747, -0.0731772929430008, -0.06281835585832596, 0.01709112711250782, -0.06394463032484055, 0.02691870555281639, 0.07603883743286133, 0.017778437584638596, -0.03136536106467247, 0.052612993866205215, 0.04995676502585411, -0.05712171271443367, -0.0720217153429985, 0.022064995020627975, -0.03057277947664261, 0.024131231009960175, 0.018445756286382675, 0.005244954023510218, -0.007021686062216759, 0.041109148412942886, -0.0463545061647892, -0.09531567990779877, -0.07981039583683014, 0.0761566013097763, 0.009109714068472385, -0.038073208183050156, -0.05304227024316788, 0.03950835019350052, 0.025915881618857384, -0.08034183830022812, -0.08948365598917007, -0.0789714977145195, -0.035218749195337296, -0.06590640544891357, -0.02793671190738678, 0.06223956495523453], [-0.0396982841193676, -0.04237811639904976, -0.03948194533586502, 0.0015531113604083657, 0.018374128267169, -0.025101840496063232, -0.04922926798462868, -0.008279611356556416, -0.03519057482481003, -0.03974904865026474, 0.06261344999074936, -0.05434808507561684, -0.058074045926332474, 0.0772169753909111, 0.024539906531572342, -0.05499553680419922, -0.045385148376226425, -0.0493449829518795, -0.018588898703455925, -0.049798522144556046, -0.044104356318712234, 0.08544531464576721, 0.08335404098033905, -0.058660298585891724, 0.07916884869337082, 0.04293201118707657, -0.08082298934459686, 0.01827482134103775, -0.0693923756480217, -0.027406683191657066, -0.062125980854034424, -0.08301034569740295, 0.022172339260578156, -0.04586903750896454, -0.038974761962890625, 0.032270196825265884, 0.045679669827222824, -0.06185687333345413, -0.012960672378540039, -0.0687306672334671, 0.07322557270526886, -0.04321882128715515, 0.08728210628032684, 0.023677488788962364, 0.009845650754868984, 0.049848321825265884, -0.034483108669519424, 0.04538653790950775, 0.07787573337554932, -0.027440231293439865, 0.020826159045100212, -0.0174676775932312, -0.01409118715673685, -0.08666111528873444, 0.06898433715105057, 0.06679364293813705, -0.046196188777685165, 0.03778766095638275, 0.016378065571188927, 0.02130638062953949, -0.04341348633170128, 0.052926115691661835, -0.06470003724098206, -0.03962486609816551, -0.0440908819437027, -0.06752340495586395, 0.0522344633936882, 0.03837333619594574, -0.0780235081911087, -0.043619509786367416, 0.02977178432047367, 0.04990898072719574, -0.08680923283100128, 0.040777064859867096, 0.025099217891693115, 0.07589761912822723, 0.006959161255508661, 0.00565980514511466, -0.06899724155664444, -0.06705275923013687, 0.03181653842329979, -0.005187044385820627, 0.08393030613660812, -0.07785531878471375, 0.015155922621488571, 0.06605386734008789, -0.019177131354808807, 0.009624074213206768, 0.05132392421364784, -0.020741527900099754, -0.025263147428631783, 0.06668577343225479, 0.008662410080432892, 0.02016332559287548, -0.04042341932654381, 0.04995475336909294, -0.06620102375745773, -0.0019321274012327194, 0.07969263195991516, 0.0872003436088562, 0.04212690144777298, -0.04655250161886215, -0.06694546341896057, -0.08585193753242493, -0.027171924710273743, 0.026887306943535805, -0.07618740200996399, 0.006780690047889948, -0.05218372866511345, 0.06376295536756516, 0.03005155548453331, 0.01221224945038557, -0.05671874061226845, -0.04046352207660675, -0.030418433248996735, -0.01865137182176113, 0.0449957549571991, 0.07732108980417252, 0.03923335298895836, -0.0065902285277843475, -0.04245242476463318, -0.07910092920064926, -0.03619757667183876, 0.021986018866300583, -0.043351877480745316, -0.02841961942613125, -0.04475327208638191, 0.07377875596284866], [-0.8566722869873047, 0.757292628288269, 0.4896586239337921, -0.04943903163075447, -1.4564878940582275, -0.6956368684768677, -0.4343979060649872, -0.5629419684410095, -1.1551235914230347, -1.5397242307662964, -0.0065383389592170715, -1.0459178686141968, -0.3224811851978302, 0.5429341793060303, -0.8009374737739563, 0.5670984983444214, 0.5844001173973083, -0.9523877501487732, -1.120580792427063, -1.310843586921692, -0.6574288010597229, -1.1867389678955078, -0.7181752324104309, 0.5822927951812744, -0.9443410634994507, 0.5743128657341003, -1.1299477815628052, -0.7690836787223816, -0.6010505557060242, 0.4681492745876312, -0.4950650930404663, 0.521298885345459, -0.7339451313018799, 0.6475819945335388, -1.3633129596710205, -0.6568849682807922, -1.0249018669128418, 0.5918197631835938, 0.5509327054023743, -1.4028640985488892, -1.4938634634017944, 0.7033159136772156, 0.670066237449646, 0.01620423048734665, 0.5038627982139587, 0.6428483128547668, -0.7730805277824402, -0.7825708389282227, 0.33097219467163086, -1.271518588066101, -0.8545375466346741, 0.32233962416648865, 0.6683328151702881, 0.3314841687679291, -0.2574499845504761, 0.5123431086540222, 0.6337183117866516, -0.8926265835762024, -0.37972065806388855, 0.5461440086364746, 0.6385593414306641, 0.5114986300468445, 0.2995322644710541, 0.725939929485321, 0.7747126817703247, -0.9054973125457764, 0.6534624099731445, -1.0633604526519775, 0.48823055624961853, 0.6682122349739075, -0.8969509601593018, 0.6727873682975769, 0.6040264964103699, 0.47721004486083984, -1.4309215545654297, -0.4661923348903656, -0.8765044808387756, -1.4533352851867676, -1.615236520767212, -1.4743095636367798, -0.6904608607292175, 0.6409443020820618, 0.4535467326641083, 0.6781045794487, 0.6601718068122864, 0.22790470719337463, 0.5208140015602112, 0.6089071035385132, 0.6199207305908203, 0.5436123013496399, -1.2832248210906982, 0.10194027423858643, 0.5476676821708679, 0.6699033975601196, 0.523580014705658, -0.8318082094192505, -0.9884603023529053, 0.7354074120521545, -0.908220648765564, 0.6653714776039124, 0.5541227459907532, 0.7115501761436462, 0.2438049465417862, -0.694652795791626, 0.4363749325275421, 0.7632375359535217, -0.17735417187213898, 0.5643395781517029, 0.9288070797920227, -1.035435676574707, -1.0906801223754883, 0.6121572256088257, 0.6713831424713135, 0.5949013829231262, 0.03132234886288643, 0.6553242802619934, -1.4278737306594849, 0.05596306174993515, 0.4124978184700012, 0.5378508567810059, 0.5948659181594849, -0.5504897832870483, -0.5966623425483704, 0.5468270778656006, -0.9695576429367065, 0.7393034100532532, -0.9339115619659424, 0.6763401031494141], [-0.0587841160595417, 0.0833277553319931, 0.08387446403503418, -0.08279474079608917, 0.07576949894428253, 0.052982147783041, 0.0022558888886123896, -0.0580882728099823, -0.05082467198371887, -0.08097722381353378, 0.019469568505883217, 0.0324908047914505, 0.03411027789115906, 0.0722716897726059, 0.05162666365504265, -0.06643696874380112, 0.02679934725165367, -0.026381662115454674, -0.06912114471197128, -0.05698002874851227, 0.05515964329242706, 0.031104709953069687, 0.03113354928791523, -0.08055691421031952, 0.026723714545369148, -0.037705887109041214, -0.028855260461568832, 0.009537715464830399, 0.03424251079559326, -0.001220888807438314, -0.07887033373117447, -0.08000694215297699, -0.022403599694371223, -0.011359155178070068, -0.057727061212062836, 0.06628220528364182, -0.06404898315668106, 0.043350089341402054, -0.004043958615511656, 0.0258644986897707, -0.04640093818306923, -0.02244872786104679, -0.07377254962921143, -0.0010153070325031877, -0.0710177943110466, 0.042719434946775436, 0.07563155144453049, 0.06559377908706665, 0.025379566475749016, 0.0052702841348946095, 0.08791547268629074, -0.018093209713697433, -0.0033436042722314596, -0.07631611824035645, 0.08762109279632568, -0.014468907378613949, 0.022213948890566826, -0.0803118646144867, -0.0028277162928134203, 0.019751446321606636, -0.06206540763378143, -0.050761040300130844, -0.0004167164152022451, 0.011245991103351116, -0.06749647855758667, 0.010195480659604073, 0.018876709043979645, -0.03415388613939285, 0.004570815246552229, -0.0664711743593216, 0.08101332187652588, 0.03416052460670471, -0.0017251020763069391, -0.08273541182279587, -0.0525946207344532, 0.027313444763422012, -0.04062924534082413, -0.04317416623234749, 0.013394278474152088, -0.046995822340250015, 0.0001362818293273449, -0.026228953152894974, 0.02889982983469963, -0.019125713035464287, 0.05874219164252281, 0.02472241409122944, -0.08382540196180344, 0.0049368394538760185, -0.07046617567539215, 0.037398140877485275, -0.05306249111890793, -0.009733551181852818, -0.08063121140003204, -0.0384657196700573, 0.037670768797397614, 0.03824637830257416, 0.038947395980358124, -0.01202904712408781, 0.055593039840459824, -0.008524905890226364, 0.0011860018130391836, 0.05092642456293106, 0.07605180889368057, -0.03763344883918762, -0.016496844589710236, 0.06624776124954224, 0.07273876667022705, -0.06899198889732361, -0.08772826194763184, 0.07262401282787323, 0.01213234942406416, -0.014773376286029816, -0.05864796042442322, 0.0345805399119854, -0.05604565516114235, -0.01875114254653454, 0.05800393596291542, -0.03787830099463463, 0.050487056374549866, -0.03857662156224251, 0.014964480884373188, 0.039140734821558, 0.020283455029129982, -0.03163857385516167, -0.058122873306274414, -0.08479154109954834, 0.026851283386349678, 0.024109188467264175], [0.03638302534818649, 0.04556741192936897, -0.040706194937229156, 0.04137119650840759, -0.00466680433601141, -0.016174927353858948, -0.03168867528438568, 0.05737845599651337, 0.006413886323571205, -0.06259340792894363, 0.023374410346150398, -0.06195555999875069, -0.05300590768456459, -0.022103840485215187, 0.05356933921575546, -0.057084258645772934, 0.07351235300302505, -0.011499198153614998, 0.07697279751300812, -0.05238166078925133, 0.021592767909169197, 0.020968616008758545, 0.008271940983831882, -0.02109438180923462, 0.06551425158977509, -0.01680281013250351, 0.07098303735256195, 0.03630733862519264, 0.04457235708832741, -0.07425980269908905, 0.029337935149669647, -0.05710545927286148, -0.06973648071289062, -0.024736996740102768, -0.08346424251794815, -0.08221068978309631, 0.03619709238409996, -0.024891411885619164, 0.04923328012228012, 0.028708631172776222, 0.061239421367645264, 0.029705045744776726, 0.08729404211044312, -0.016374913975596428, -0.015255146659910679, -0.016651282086968422, -0.0865180492401123, 0.0035954315681010485, 0.08298575133085251, 0.05782438814640045, -0.07584355771541595, -0.031161334365606308, -0.04638618975877762, -0.08632141351699829, -0.07163476198911667, -0.08239222317934036, 0.011216540820896626, -0.02742880955338478, 0.03780282661318779, -0.003982761409133673, -0.0615307092666626, 0.05548062548041344, -0.033381104469299316, -0.03625217825174332, -0.009549843147397041, 0.05110114440321922, 0.0729871392250061, 0.012008079327642918, 0.029525404796004295, -0.04099065437912941, 0.0036033447831869125, 0.034871090203523636, -0.016191016882658005, 0.005670131184160709, 0.01582900807261467, -0.06877444684505463, -0.07327599078416824, 0.0035633579827845097, -0.006990771275013685, -0.04552270472049713, -0.057413384318351746, 0.07334376871585846, 0.0048670233227312565, 0.04868665710091591, 0.005623633041977882, -0.05610845610499382, 0.0015269803116098046, -0.08762011677026749, 0.03174198046326637, 0.02597994916141033, 0.06392290443181992, -0.06261354684829712, 0.06126498430967331, -0.07494650781154633, -0.04172946885228157, 0.008618366904556751, -0.025916285812854767, -0.04122501239180565, -0.06502904742956161, 0.025735972449183464, 0.00770405400544405, 0.007912933826446533, -0.08455175906419754, 0.028500793501734734, 0.011110130697488785, 0.016935499384999275, -0.07018303871154785, 0.06196886673569679, -0.053731657564640045, 0.04914296045899391, -0.07631033658981323, -0.06241333857178688, -0.06786394119262695, -0.04636028781533241, -0.017186293378472328, -0.042223669588565826, -0.05170775577425957, 0.0786113515496254, -0.05517851561307907, -0.004007670097053051, 0.08352161943912506, -0.07292364537715912, 0.01773396134376526, -0.026871271431446075, 0.06831791251897812, 0.05444660410284996, -0.01533195935189724, -0.051356662064790726], [-1.03488290309906, 0.6434481739997864, 0.5588741898536682, 0.0021647359244525433, -1.390168309211731, -0.44170036911964417, -0.6426233053207397, -0.37137508392333984, -1.072185754776001, -1.4120630025863647, 0.04788757115602493, -1.076766014099121, -0.6042062044143677, 0.5877604484558105, -0.9400546550750732, 0.5390549302101135, 0.6982480883598328, -0.8433300852775574, -1.137022852897644, -1.3765946626663208, -0.3854798972606659, -1.4723362922668457, -0.814876139163971, 0.6027230024337769, -0.9268874526023865, 0.6781112551689148, -1.082598090171814, -0.594927191734314, -0.3307127356529236, 0.4338500201702118, -0.31561556458473206, 0.5340404510498047, -0.857302188873291, 0.6217073202133179, -1.2254035472869873, -0.9340339303016663, -0.9776157736778259, 0.8079367876052856, 0.6007488965988159, -1.39382803440094, -1.538170576095581, 0.4980250298976898, 0.5993174910545349, 0.07535230368375778, 0.7552862763404846, 0.6580871343612671, -0.9911006689071655, -0.3373909890651703, 0.4587537944316864, -1.3676953315734863, -0.42279288172721863, 0.24461305141448975, 0.5681852698326111, 0.28372737765312195, -0.40879249572753906, 0.6882138848304749, 0.6019901037216187, -0.7265800833702087, -0.7051305770874023, 0.5143275260925293, 0.4380199611186981, 0.4809386134147644, 0.18968041241168976, 0.7671732306480408, 0.6875514388084412, -0.8940315842628479, 0.7189462184906006, -1.299093246459961, 0.6122146248817444, 0.7837095260620117, -0.9341999888420105, 0.7457589507102966, 0.7718141078948975, 0.5850904583930969, -1.2097221612930298, -0.3580405116081238, -1.1746842861175537, -1.088962197303772, -1.5163698196411133, -1.5047022104263306, -0.8189656734466553, 0.6731114983558655, 0.8466177582740784, 0.7280621528625488, 0.6850392818450928, 0.26358941197395325, 0.5825874209403992, 0.5901777744293213, 0.5363343954086304, 0.7198618054389954, -1.4338914155960083, -0.0214863158762455, 0.5357338786125183, 0.565311074256897, 0.807195246219635, -0.8781773447990417, -1.0405330657958984, 0.6922694444656372, -1.1498804092407227, 0.4732265770435333, 0.5541685819625854, 0.6142065525054932, 0.20180107653141022, -0.6479640603065491, 0.3770207464694977, 0.7244454026222229, 0.011294307187199593, 0.6203242540359497, 0.6318945288658142, -1.3659688234329224, -0.9264508485794067, 0.661884605884552, 0.5242918729782104, 0.7882333397865295, -0.29097092151641846, 0.8786013126373291, -1.4095125198364258, 0.24093008041381836, 0.34576931595802307, 0.5113604664802551, 0.5819190144538879, -0.8246954679489136, -0.4195094704627991, 0.7077577114105225, -0.9386150240898132, 0.6558762192726135, -0.7155047059059143, 0.638698160648346], [-0.8258573412895203, 0.7688274383544922, 0.5121562480926514, 0.02894788794219494, -1.323830485343933, -0.8110580444335938, -0.41503584384918213, -0.5470166802406311, -1.1262588500976562, -1.5851279497146606, 0.06109143793582916, -1.0798803567886353, -0.30134424567222595, 0.36869025230407715, -0.7080902457237244, 0.5566796660423279, 0.5769470930099487, -0.9880378246307373, -1.0395976305007935, -1.3386614322662354, -0.6656016707420349, -1.1317862272262573, -0.73961341381073, 0.7437344789505005, -1.004987120628357, 0.695739209651947, -1.1106854677200317, -0.7186697125434875, -0.6375074982643127, 0.4418090581893921, -0.5121002197265625, 0.571540892124176, -0.7759835124015808, 0.6911225914955139, -1.310343623161316, -0.6703035235404968, -0.9018563628196716, 0.6533723473548889, 0.681415855884552, -1.4703704118728638, -1.4757859706878662, 0.7387310862541199, 0.6597451567649841, -0.015936607494950294, 0.5734537839889526, 0.618033230304718, -0.6718780994415283, -0.728519082069397, 0.3811543881893158, -1.2660579681396484, -0.8672908544540405, 0.43178266286849976, 0.6313652992248535, 0.40403661131858826, -0.25588077306747437, 0.4354340732097626, 0.7373683452606201, -0.8866361975669861, -0.32615217566490173, 0.6582391262054443, 0.5990368723869324, 0.4729735851287842, 0.3420621454715729, 0.7373632192611694, 0.9173948764801025, -0.7507888674736023, 0.6297997236251831, -1.1644891500473022, 0.44721707701683044, 0.7250298857688904, -0.9446412324905396, 0.5997672080993652, 0.6746222972869873, 0.5325670838356018, -1.4353388547897339, -0.5085541009902954, -0.8839069604873657, -1.4359409809112549, -1.6296348571777344, -1.5467519760131836, -0.8106696605682373, 0.6385866403579712, 0.6179212331771851, 0.7341753840446472, 0.7636815905570984, 0.19753322005271912, 0.5307830572128296, 0.7261818051338196, 0.5673715472221375, 0.7013576626777649, -1.234666347503662, 0.007261254824697971, 0.47361594438552856, 0.5507336854934692, 0.669582188129425, -0.7096224427223206, -1.0218831300735474, 0.7967265844345093, -0.9442059397697449, 0.7277274131774902, 0.5844774842262268, 0.6799901723861694, 0.30995774269104004, -0.8477838635444641, 0.607543408870697, 0.7128986120223999, -0.22627627849578857, 0.6531811952590942, 0.933190643787384, -1.0331566333770752, -1.2145509719848633, 0.6673950552940369, 0.6693877577781677, 0.5335800051689148, 0.16988100111484528, 0.7316016554832458, -1.3101202249526978, -0.0639331191778183, 0.4421539902687073, 0.5132766962051392, 0.7154079079627991, -0.4549543559551239, -0.7511019110679626, 0.5107433199882507, -0.9245783090591431, 0.7286280393600464, -0.9853959083557129, 0.6408259272575378], [-0.9790982604026794, 0.594113826751709, 0.6563684940338135, 0.024548020213842392, -1.330277919769287, -0.4193681478500366, -0.5686327815055847, -0.4363161325454712, -0.9660628437995911, -1.4281107187271118, 0.006700598634779453, -1.0118000507354736, -0.46649935841560364, 0.5217475891113281, -1.0425946712493896, 0.48840513825416565, 0.6405452489852905, -0.9454705119132996, -1.1593400239944458, -1.4512200355529785, -0.4613931477069855, -1.461330771446228, -0.7616446614265442, 0.6712390780448914, -1.0540332794189453, 0.577293872833252, -1.0515497922897339, -0.7110601663589478, -0.4353725016117096, 0.44329479336738586, -0.22621558606624603, 0.5726035833358765, -1.0200806856155396, 0.6758798956871033, -1.3465702533721924, -0.9182986617088318, -1.049157977104187, 0.7564537525177002, 0.47641536593437195, -1.3907579183578491, -1.553277850151062, 0.5000537037849426, 0.6062568426132202, -0.0031187296845018864, 0.7617695927619934, 0.5304170846939087, -0.8472889065742493, -0.5247187614440918, 0.3368466794490814, -1.2710425853729248, -0.6073188781738281, 0.19488026201725006, 0.6225894093513489, 0.25941944122314453, -0.47191691398620605, 0.6535415053367615, 0.6210693717002869, -0.7276114821434021, -0.5467921495437622, 0.5708647966384888, 0.5429207682609558, 0.5273209810256958, 0.19055861234664917, 0.6233171224594116, 0.6922450661659241, -0.9485231637954712, 0.5923675298690796, -1.315163254737854, 0.6782832741737366, 0.7171642184257507, -0.923824667930603, 0.7139155864715576, 0.6603413820266724, 0.6411868929862976, -1.2763265371322632, -0.3564402163028717, -1.0358045101165771, -1.1963722705841064, -1.5237222909927368, -1.6002172231674194, -0.7718889713287354, 0.6698921322822571, 0.6875084042549133, 0.6024476289749146, 0.6318133473396301, 0.23661430180072784, 0.5646622776985168, 0.6554853916168213, 0.6991904973983765, 0.7608224153518677, -1.4672728776931763, -0.017822198569774628, 0.6315997838973999, 0.6072818040847778, 0.6364862322807312, -0.902493417263031, -1.1152215003967285, 0.6860001087188721, -1.0847049951553345, 0.4759136438369751, 0.49665388464927673, 0.6839091181755066, 0.31142935156822205, -0.6641334891319275, 0.45088905096054077, 0.6229252815246582, -0.07375398278236389, 0.592138409614563, 0.7994825839996338, -1.2494840621948242, -0.9659053683280945, 0.6734533905982971, 0.6440299153327942, 0.7136549353599548, -0.20396126806735992, 0.8135903477668762, -1.55612051486969, 0.14774109423160553, 0.46842846274375916, 0.41471928358078003, 0.6608866453170776, -0.6994537115097046, -0.49812325835227966, 0.7309271097183228, -1.0000474452972412, 0.5738061666488647, -0.6632755994796753, 0.5546256899833679], [-0.7687614560127258, 0.7745569944381714, 0.4977947175502777, -0.03650752454996109, -1.4146201610565186, -0.683955192565918, -0.44183793663978577, -0.5759212970733643, -1.2018953561782837, -1.47541081905365, -0.03962887078523636, -0.9775119423866272, -0.3987245261669159, 0.4729054272174835, -0.7753361463546753, 0.5217582583427429, 0.6932148933410645, -0.8996539115905762, -1.0159372091293335, -1.26742422580719, -0.601076066493988, -1.2732239961624146, -0.6201193332672119, 0.678062379360199, -1.0082781314849854, 0.6669304966926575, -1.052564024925232, -0.7203563451766968, -0.5228233337402344, 0.47070860862731934, -0.5495169758796692, 0.6377706527709961, -0.8591972589492798, 0.6629980802536011, -1.34427011013031, -0.7416987419128418, -1.0475376844406128, 0.5751723051071167, 0.5860874056816101, -1.3640857934951782, -1.586751103401184, 0.7390602231025696, 0.7013238072395325, -0.01097568217664957, 0.6212127804756165, 0.6962464451789856, -0.808465838432312, -0.8071684837341309, 0.32712018489837646, -1.3192145824432373, -0.8876010775566101, 0.31983375549316406, 0.717712938785553, 0.26887601613998413, -0.2811906039714813, 0.4660332500934601, 0.6934636831283569, -0.7853721380233765, -0.3232401907444, 0.6619789600372314, 0.558112621307373, 0.49924394488334656, 0.376084566116333, 0.6116737127304077, 0.8330199122428894, -0.9250141978263855, 0.5920838117599487, -1.2265559434890747, 0.4874560534954071, 0.5609146356582642, -0.874584972858429, 0.5684446096420288, 0.6401186585426331, 0.5398231148719788, -1.357962965965271, -0.42979976534843445, -1.0226397514343262, -1.4108123779296875, -1.6361948251724243, -1.5414187908172607, -0.7844297885894775, 0.5398891568183899, 0.6338125467300415, 0.6871780157089233, 0.6894645690917969, 0.2469494342803955, 0.5526155829429626, 0.7433333396911621, 0.5309904217720032, 0.6895865201950073, -1.2981925010681152, -0.01236667949706316, 0.5078790187835693, 0.5386370420455933, 0.5520793199539185, -0.7217770218849182, -1.0765289068222046, 0.6474278569221497, -0.9099741578102112, 0.7080949544906616, 0.647172749042511, 0.7457396388053894, 0.29258641600608826, -0.7055884599685669, 0.5946548581123352, 0.6192882657051086, -0.20433107018470764, 0.6446782946586609, 0.9158592224121094, -1.0812454223632812, -1.1685771942138672, 0.6279379725456238, 0.6918526887893677, 0.6058087348937988, 0.10518631339073181, 0.6105263829231262, -1.4226802587509155, -0.06498605012893677, 0.36055731773376465, 0.461315393447876, 0.6986103653907776, -0.4543830156326294, -0.6582676768302917, 0.5313123464584351, -0.9092782735824585, 0.724539577960968, -0.9349067807197571, 0.7251265645027161], [-0.971824586391449, 0.6771224141120911, 0.6211835145950317, 0.015897264704108238, -1.4351741075515747, -0.7564437985420227, -0.5855270028114319, -0.57978755235672, -1.1712027788162231, -1.4332337379455566, -0.012464780360460281, -1.0604324340820312, -0.4039822220802307, 0.5094122886657715, -0.8021024465560913, 0.506390392780304, 0.7019447088241577, -1.0131279230117798, -1.2162516117095947, -1.261609673500061, -0.4800492823123932, -1.2605373859405518, -0.809151828289032, 0.7107675671577454, -1.0502827167510986, 0.6089345216751099, -1.0425828695297241, -0.7195793986320496, -0.5313898921012878, 0.46326178312301636, -0.49389970302581787, 0.5697028636932373, -0.839263379573822, 0.6843506693840027, -1.2459927797317505, -0.8469628095626831, -1.063808560371399, 0.6843444108963013, 0.5983775854110718, -1.3251985311508179, -1.6306884288787842, 0.5837613344192505, 0.6526684165000916, 0.04279008135199547, 0.6522260308265686, 0.5963329076766968, -0.8492031097412109, -0.6126631498336792, 0.3321530222892761, -1.342287302017212, -0.6684984564781189, 0.3562949001789093, 0.6665315628051758, 0.22622567415237427, -0.3426171839237213, 0.5653286576271057, 0.6153355240821838, -0.8406351208686829, -0.5587365627288818, 0.6542794704437256, 0.4559686779975891, 0.5597044229507446, 0.24932250380516052, 0.6780942678451538, 0.8213047385215759, -0.9409138560295105, 0.5170100927352905, -1.144680142402649, 0.5558203458786011, 0.7074902653694153, -0.7996102571487427, 0.5603526830673218, 0.6863294243812561, 0.5786615014076233, -1.3843023777008057, -0.3629750609397888, -0.9834142327308655, -1.3809939622879028, -1.531633973121643, -1.503024935722351, -0.8126362562179565, 0.5094045400619507, 0.6736353039741516, 0.6640892028808594, 0.7009521722793579, 0.20734785497188568, 0.5076823830604553, 0.5978152751922607, 0.5256542563438416, 0.6275650858879089, -1.3237218856811523, -0.06038292497396469, 0.43125391006469727, 0.4986359477043152, 0.550319254398346, -0.7555394172668457, -1.0706590414047241, 0.7221176624298096, -0.9978138208389282, 0.672153651714325, 0.5216853618621826, 0.6770017743110657, 0.2276192158460617, -0.7647386789321899, 0.46049895882606506, 0.6424760222434998, -0.2203546017408371, 0.6937215328216553, 0.8089667558670044, -1.1854175329208374, -0.9971187114715576, 0.7090438008308411, 0.5347591638565063, 0.6785768270492554, -0.17961853742599487, 0.7473083734512329, -1.4276975393295288, 0.07194340974092484, 0.3723272681236267, 0.4983811676502228, 0.6945837736129761, -0.6506498456001282, -0.5874178409576416, 0.5310214161872864, -0.917140007019043, 0.5858232378959656, -0.8458845019340515, 0.5267173051834106], [0.013241684064269066, 0.19266563653945923, 0.06279020011425018, -0.06179314851760864, -0.2865893840789795, -0.21269039809703827, 0.03136659041047096, -0.15290747582912445, -0.29955992102622986, -0.1781725436449051, 0.0004582158289849758, -0.20573310554027557, -0.006106911227107048, 0.07472176104784012, -0.2851145267486572, 0.08266572654247284, 0.14142976701259613, -0.15549050271511078, -0.15889985859394073, -0.2451920509338379, -0.0840580090880394, -0.04062164947390556, -0.04278293251991272, 0.22730600833892822, -0.20775668323040009, 0.0478302426636219, -0.24657374620437622, -0.2714197039604187, -0.15097655355930328, 0.1815764158964157, -0.09941159933805466, 0.05778481438755989, -0.1905408650636673, 0.09184852242469788, -0.283744752407074, -0.02490963786840439, -0.14378590881824493, 0.09873250126838684, 0.15450134873390198, -0.2868213355541229, -0.24228070676326752, 0.09069943428039551, 0.16748346388339996, 0.01286287046968937, 0.0648651048541069, 0.14699837565422058, -0.03670187294483185, -0.13065505027770996, -0.03125093877315521, -0.16497164964675903, -0.2204936295747757, 0.2772326171398163, 0.18973150849342346, 0.1447133719921112, 0.00896435510367155, 0.15516401827335358, 0.23378713428974152, -0.28465205430984497, 0.040815748274326324, 0.08601277321577072, 0.12389316409826279, 0.19509591162204742, 0.08191732317209244, 0.18581849336624146, 0.09328344464302063, -0.1242973655462265, 0.14602340757846832, -0.30851972103118896, 0.10616807639598846, 0.1409262865781784, -0.21239502727985382, 0.1055721640586853, 0.08083745092153549, 0.1764388382434845, -0.19618825614452362, -0.10340793430805206, -0.29292744398117065, -0.2671256363391876, -0.2807329297065735, -0.2102695107460022, -0.22738531231880188, 0.1023939847946167, 0.1011785939335823, 0.15331105887889862, 0.07637636363506317, 0.056756265461444855, 0.14433351159095764, 0.19048430025577545, 0.06945499777793884, 0.09095091372728348, -0.2231559455394745, 0.027664169669151306, 0.12454260140657425, 0.06393949687480927, 0.08078338950872421, -0.022644396871328354, -0.13083341717720032, 0.15098416805267334, -0.30054935812950134, 0.07901161164045334, 0.08049976080656052, 0.24603328108787537, 0.09895758330821991, -0.10168269276618958, 0.11583151668310165, 0.07964640855789185, -0.021584415808320045, 0.091575026512146, 0.12499760091304779, -0.11958372592926025, -0.22961309552192688, 0.1663111448287964, 0.1443731188774109, 0.13945579528808594, 0.08664530515670776, 0.042929425835609436, -0.0751507356762886, -0.04305211082100868, 0.1102655678987503, 0.08042949438095093, 0.22056680917739868, -0.08588866889476776, -0.20888391137123108, 0.13739663362503052, -0.20841500163078308, 0.1321769654750824, -0.13977180421352386, 0.21621158719062805], [-0.8389773368835449, 0.6076707243919373, 0.6079848408699036, -0.07830224931240082, -1.4698635339736938, -0.7294365763664246, -0.5737672448158264, -0.5488263368606567, -1.211763858795166, -1.4207398891448975, -0.028194084763526917, -0.9293886423110962, -0.3327532112598419, 0.409263014793396, -0.7916688919067383, 0.41848450899124146, 0.5440560579299927, -0.8665111660957336, -1.1217608451843262, -1.2910219430923462, -0.5133426189422607, -1.2402154207229614, -0.6794615387916565, 0.6951842904090881, -0.9816087484359741, 0.6358351111412048, -1.0381109714508057, -0.7382361888885498, -0.47015580534935, 0.36129751801490784, -0.42896968126296997, 0.5729954242706299, -0.8820760250091553, 0.5840725302696228, -1.2974138259887695, -0.7829890847206116, -0.9657872915267944, 0.6089433431625366, 0.6304864287376404, -1.4328354597091675, -1.5020365715026855, 0.712142825126648, 0.7419160604476929, 0.0001634454820305109, 0.5384116768836975, 0.6673099994659424, -0.784156858921051, -0.7348904609680176, 0.3669130802154541, -1.391637921333313, -0.8623796701431274, 0.43070048093795776, 0.6194926500320435, 0.3013196885585785, -0.22253061830997467, 0.5561464428901672, 0.6830771565437317, -0.7909327149391174, -0.5287661552429199, 0.5392087697982788, 0.593064546585083, 0.5677909255027771, 0.33468857407569885, 0.7308432459831238, 0.7665625214576721, -0.9110286235809326, 0.5614742040634155, -1.2509403228759766, 0.5111461281776428, 0.5885981917381287, -0.8492041230201721, 0.5894243717193604, 0.5293145179748535, 0.5691986680030823, -1.4866644144058228, -0.42075586318969727, -0.9272069931030273, -1.4289515018463135, -1.6277025938034058, -1.520742416381836, -0.7682978510856628, 0.5916340947151184, 0.49894648790359497, 0.6969426870346069, 0.7294043302536011, 0.09759194403886795, 0.5918494462966919, 0.6743220686912537, 0.5046924352645874, 0.5752246379852295, -1.2845395803451538, -0.00754582742229104, 0.52286696434021, 0.5499069690704346, 0.6222325563430786, -0.7163178324699402, -0.996807336807251, 0.61847323179245, -0.983680248260498, 0.555967390537262, 0.6113935708999634, 0.7471119165420532, 0.2594355642795563, -0.8293813467025757, 0.4582478404045105, 0.7146063446998596, -0.17143447697162628, 0.58428955078125, 0.9208755493164062, -1.1396552324295044, -1.1287100315093994, 0.7388637661933899, 0.5210120677947998, 0.6512430310249329, -0.10138130933046341, 0.7179985046386719, -1.4348257780075073, 0.06039341166615486, 0.3933973014354706, 0.5534843802452087, 0.7329111099243164, -0.5783507227897644, -0.5967434644699097, 0.5318498611450195, -1.0057048797607422, 0.7042966485023499, -0.9157947301864624, 0.6522926688194275], [0.03203371912240982, -0.09483751654624939, 0.013078967109322548, -0.06376006454229355, -0.03344818577170372, -0.05497956648468971, 0.028111672028899193, -0.06117871031165123, 0.04264895245432854, 0.011730194091796875, 0.07744962722063065, -0.06745164096355438, -0.07188045233488083, 0.006240208633244038, 0.009272094815969467, -0.04897411912679672, -0.09083636105060577, -0.06552979350090027, 0.07456665486097336, 0.028125638142228127, -0.0788290947675705, 0.06674224883317947, 0.002166016958653927, 0.059991255402565, 0.030909590423107147, -0.09825900197029114, -0.08635248243808746, -0.09417560696601868, -0.0851413756608963, 0.039660289883613586, 0.046827204525470734, -0.004531984217464924, 0.047385938465595245, 0.0290437750518322, 0.051710452884435654, 0.01886472851037979, 0.0444059818983078, -0.1015893965959549, -0.036108553409576416, 0.03555247560143471, 0.033368006348609924, -0.02204579859972, -0.08078126609325409, 0.07654116302728653, 0.03885962814092636, 0.05947188660502434, -0.010050436481833458, -0.0951337218284607, 0.05359283462166786, 0.04290428012609482, -0.016374338418245316, -0.09775173664093018, 0.02897234633564949, -0.011637292802333832, -0.009233290329575539, -0.051402442157268524, -0.09427441656589508, -0.09418632090091705, -0.03919046372175217, -0.006834111176431179, -0.07455907016992569, 0.05506743863224983, -0.03205906227231026, -0.04948410391807556, 0.06267204880714417, -0.06804227828979492, 0.01705266162753105, 0.0008549364283680916, -0.051674984395504, -0.07207776606082916, -0.06423468887805939, -0.03662842512130737, -0.04191580414772034, 0.05259379744529724, -0.06911391019821167, -0.06520619988441467, 0.040892213582992554, -0.027930857613682747, -0.022878441959619522, -0.025091402232646942, 0.04399481415748596, -0.07886393368244171, 0.06435714662075043, 0.027743525803089142, 0.02104268968105316, -0.028570283204317093, 0.028312891721725464, -0.0945529192686081, 0.057095132768154144, -0.04018426686525345, 0.06599342823028564, -0.02217676490545273, 0.06647111475467682, -0.10249245166778564, 0.06146268546581268, -0.026106499135494232, 0.03445848450064659, 0.013274507597088814, -0.09157171100378036, 0.021049857139587402, 0.024028237909078598, 0.007850531488656998, 0.040850747376680374, -0.021809136494994164, 0.05253538489341736, 0.05394939333200455, 0.0026941525284200907, -0.03360098600387573, -0.10247623920440674, -0.06147882342338562, -0.08953727781772614, -0.06848345696926117, -0.09862898290157318, 0.04244644194841385, -0.09132055938243866, 0.03963945060968399, -0.0410783588886261, -0.038128890097141266, 0.0875953882932663, -0.04488786309957504, -0.09400893747806549, -0.09948334097862244, 0.02442413568496704, 0.01442701369524002, -0.011743412353098392, 0.02946636453270912, -0.006794092711061239, -0.0891633927822113], [-0.08040225505828857, -0.050853878259658813, -0.05233706533908844, -0.010879660956561565, -0.03222579509019852, 0.06076212227344513, -0.04110277444124222, 0.04403304308652878, -0.04553219676017761, 0.06728515774011612, -0.013886701315641403, 0.015907589346170425, 0.038051292300224304, -0.015030556358397007, 0.04413548484444618, -0.06447453051805496, 0.06529922783374786, 0.020336465910077095, -0.06746593117713928, -0.0635746419429779, -0.04257585480809212, 0.07515566796064377, -0.05568275973200798, -0.07444857805967331, -0.04170600324869156, -0.014800479635596275, 0.058092642575502396, -0.060461919754743576, -0.023389477282762527, -0.06848058104515076, 0.0709569975733757, -0.01037303451448679, -0.012848645448684692, -0.040665362030267715, -0.017505081370472908, 0.02915722131729126, 0.002364332787692547, -0.012700128369033337, -0.0847727581858635, -0.020701425150036812, -0.04938192293047905, -0.08576609939336777, -0.05272276699542999, -0.0734257847070694, -0.024579357355833054, 0.06290493905544281, -0.07158605009317398, 0.007185733877122402, -0.026164477691054344, -0.06527653336524963, 0.048745740205049515, -0.003439277643337846, -0.08452512323856354, -0.0008337068138644099, -0.08053102344274521, -0.05725289136171341, -0.0014868322759866714, -0.004822658374905586, 0.055234212428331375, 0.06563863903284073, -0.06265497207641602, -0.07175670564174652, 0.01456404384225607, 0.001724150963127613, 0.05315006151795387, -0.018686026334762573, 0.019022967666387558, 0.06798484921455383, -0.06095060706138611, -0.05978165566921234, -0.08115942776203156, -0.017074204981327057, 0.03255286440253258, 0.03432323783636093, -0.04500614106655121, -0.056730110198259354, -0.02391088753938675, 0.030803509056568146, 0.0618123784661293, -0.06889098137617111, -0.05597452074289322, 0.0069998931139707565, -0.03690389171242714, -0.024521753191947937, 0.011450761929154396, -0.02115357667207718, -0.00367483077570796, -0.01536279171705246, 0.07165322452783585, 0.04883645847439766, 0.0660729929804802, -0.02150675654411316, -0.09225906431674957, 0.004368518479168415, 0.02038019709289074, -0.035421885550022125, 0.0008931127958931029, -0.05961501598358154, 0.08764412999153137, 0.06055515632033348, -0.07811392098665237, 0.028129881247878075, 0.0870468020439148, -0.049548760056495667, 0.04412657022476196, 0.06017197668552399, 0.06841908395290375, 0.0023709991946816444, -0.05210375785827637, -0.024216756224632263, -0.03989649936556816, -0.032017894089221954, 0.053578391671180725, 0.042329173535108566, -0.0019282815046608448, 0.040617235004901886, -0.08588558435440063, 0.025548618286848068, 0.014346365816891193, -0.04641585052013397, 0.04096601530909538, -0.08057772368192673, -0.06356265395879745, 0.028329014778137207, -0.049188606441020966, 0.05367341265082359, -0.000597476027905941, -0.07591547816991806], [2.8519039154052734, 1.6902450323104858, 0.8630151748657227, 0.0413663424551487, 2.1430583000183105, -3.6896393299102783, 2.7168147563934326, -2.647979259490967, -2.10727596282959, -2.705463409423828, -0.02661876566708088, -2.580389976501465, 2.532052755355835, -0.12182780355215073, -1.1362015008926392, 0.44618329405784607, 0.09732463955879211, -2.68310284614563, 2.7836802005767822, 2.02245831489563, -2.607060194015503, 2.9347903728485107, 2.591742992401123, 0.9837417602539062, -2.3801352977752686, 0.7231706380844116, -1.9329540729522705, -2.7426719665527344, -2.5638487339019775, 0.5631905198097229, -2.684826612472534, 0.8288716673851013, -0.6241387724876404, 1.3109163045883179, 1.4937214851379395, 2.939366340637207, -1.4535245895385742, -0.7604860067367554, 1.6350080966949463, -2.9303858280181885, 2.447622060775757, 1.5074440240859985, 1.6755330562591553, -0.05240339785814285, -0.9362342357635498, 1.4694570302963257, 2.767758369445801, -3.477910280227661, -0.47692200541496277, 2.012003183364868, -3.6843326091766357, 2.1285126209259033, 1.0553898811340332, 0.5230427980422974, 2.5494565963745117, -0.8407072424888611, 1.3198680877685547, -2.78817081451416, 2.788029909133911, 1.1536113023757935, 1.5334162712097168, 0.9714167714118958, 0.4983114004135132, 0.9155092835426331, 1.552584171295166, -0.7804758548736572, -0.040319766849279404, -1.9405267238616943, -0.6393066048622131, 0.21608974039554596, -2.148653268814087, 0.02853388525545597, -0.20743124186992645, 0.4408488869667053, -2.87139892578125, -2.5438475608825684, -0.9279047846794128, -3.4384217262268066, -2.8564207553863525, 2.6071503162384033, -1.750222086906433, 0.46001550555229187, -1.2742419242858887, 0.7331828474998474, 0.7778519988059998, -0.2890048027038574, -0.011037413962185383, 1.5829049348831177, 0.24388983845710754, -0.020993100479245186, 2.8909270763397217, -0.04357955604791641, 0.404222309589386, 1.1824406385421753, -0.49459192156791687, 2.4220662117004395, 1.870036244392395, 1.3991142511367798, -1.2524123191833496, 0.6493657231330872, 1.071994662284851, 1.4968067407608032, 0.4008948504924774, -3.2422499656677246, 1.4450510740280151, 0.9416778087615967, -2.2342166900634766, 0.8856533169746399, 1.2001348733901978, 2.9006831645965576, -3.3841183185577393, 1.164456844329834, 0.994924008846283, -0.19418735802173615, 2.6969797611236572, -0.40145522356033325, 2.6352219581604004, -1.8153079748153687, 0.24628973007202148, 0.8648002743721008, 1.403133511543274, 2.724201202392578, -2.9367852210998535, -0.3592470586299896, 1.6129436492919922, 1.8410059213638306, -3.5808799266815186, 1.4951218366622925], [-0.8439016938209534, 0.7176979780197144, 0.4935106039047241, -0.024875544011592865, -1.326748251914978, -0.7161112427711487, -0.365311861038208, -0.5923383235931396, -1.2120883464813232, -1.40837562084198, 0.0670778900384903, -0.9366062879562378, -0.35491296648979187, 0.4764058589935303, -0.8872455358505249, 0.4805898368358612, 0.7024174928665161, -1.001711368560791, -1.028698444366455, -1.2700227499008179, -0.5724855661392212, -1.1732609272003174, -0.5783429145812988, 0.7480668425559998, -1.1177985668182373, 0.5981599688529968, -1.1382259130477905, -0.7460444569587708, -0.6279186010360718, 0.48388347029685974, -0.5612877607345581, 0.5940791368484497, -0.7823252081871033, 0.745684802532196, -1.2851438522338867, -0.6933338046073914, -0.9104049205780029, 0.4879268705844879, 0.7326669096946716, -1.4872890710830688, -1.5479793548583984, 0.7628185153007507, 0.8256841897964478, -0.018405232578516006, 0.5547960996627808, 0.6993820667266846, -0.5925347805023193, -0.8203829526901245, 0.2658841013908386, -1.346542477607727, -0.8432493209838867, 0.41922080516815186, 0.6270270347595215, 0.3179371953010559, -0.08075053244829178, 0.5913577675819397, 0.7371183037757874, -0.9076361656188965, -0.4129188656806946, 0.7169123291969299, 0.6440742015838623, 0.6069836616516113, 0.2675738036632538, 0.6070302724838257, 0.8211750984191895, -0.8446250557899475, 0.568088948726654, -1.2385339736938477, 0.5981205701828003, 0.6139997839927673, -0.9259310364723206, 0.645922839641571, 0.5255199074745178, 0.6066577434539795, -1.423197627067566, -0.4073011875152588, -0.9775349497795105, -1.3866766691207886, -1.5903198719024658, -1.5532196760177612, -0.7609527707099915, 0.7131980657577515, 0.5666861534118652, 0.7536653280258179, 0.7941522598266602, 0.20930606126785278, 0.5837898254394531, 0.784357488155365, 0.5942055583000183, 0.5608833432197571, -1.3225665092468262, -0.01659703627228737, 0.4800518751144409, 0.6459922194480896, 0.5457268357276917, -0.6716880798339844, -0.9554181098937988, 0.6817063093185425, -0.9254406094551086, 0.7497936487197876, 0.5535100102424622, 0.7193979620933533, 0.35703045129776, -0.7082274556159973, 0.6507458090782166, 0.6907079219818115, -0.3268415331840515, 0.7097751498222351, 0.8779129385948181, -1.0396144390106201, -1.2247155904769897, 0.7174182534217834, 0.701735258102417, 0.6299622058868408, 0.13634024560451508, 0.7001059055328369, -1.2508924007415771, 0.0011606450425460935, 0.4924619793891907, 0.6056530475616455, 0.7628376483917236, -0.38825368881225586, -0.7162136435508728, 0.5140385627746582, -0.9634273648262024, 0.6684335470199585, -0.9541363716125488, 0.7675333619117737], [-0.025366291403770447, -0.0605274997651577, -0.0395163856446743, -0.022544527426362038, 0.019766950979828835, 0.055769287049770355, -0.02673112228512764, 0.06626490503549576, 0.03370560705661774, -0.019551154226064682, -0.058441031724214554, -0.09728675335645676, 0.021472331136465073, -0.021296147257089615, -0.017127646133303642, 0.023818915709853172, -0.07618729025125504, -0.06699461489915848, 0.030541636049747467, 0.00015238020569086075, -0.04059508442878723, -0.013619659468531609, -0.08627571910619736, -0.06434983015060425, -0.08371999114751816, -0.07725333422422409, 0.03977193683385849, -0.05860089138150215, 0.026212427765130997, 0.007491882890462875, 0.002771184779703617, 0.04012935608625412, -0.0941595733165741, -0.030647752806544304, -0.04161091893911362, 0.03984007239341736, -0.019472043961286545, 0.0650872066617012, 0.0588645413517952, -0.03871455043554306, -0.07854694873094559, -0.09747037291526794, 0.058824192732572556, 0.03215755894780159, 0.006010030396282673, -0.09646923094987869, -0.07841472327709198, 0.029020318761467934, -0.08644779026508331, -0.04631735384464264, 0.05484938248991966, -0.0931965559720993, -0.08208295702934265, 0.012302042916417122, 0.025498855859041214, 0.03840458020567894, 0.012122605927288532, 0.03590928763151169, 0.07421719282865524, -0.019981352612376213, -0.07683832943439484, 0.0640755444765091, 0.05226011946797371, -0.0008241776376962662, 0.015888355672359467, 0.003727391827851534, 0.007080717012286186, -0.058598633855581284, -0.05444222688674927, -0.007968469522893429, -0.012189737521111965, -0.06022660434246063, 0.014345402829349041, -0.009317942894995213, 0.07560400664806366, -0.07136629521846771, -0.014623744413256645, -0.06848068535327911, 0.08014756441116333, -0.0749414935708046, -0.098345085978508, 0.0598035603761673, -0.07165390998125076, -0.03290853649377823, -0.05800379067659378, 0.04585611820220947, -0.022758103907108307, 0.029437128454446793, 0.0423407256603241, -0.025477981194853783, 0.023295050486922264, 0.04569193348288536, -0.06323769688606262, 0.04539782926440239, -0.07789745926856995, 0.0719611719250679, 0.062302134931087494, 0.030812129378318787, 0.07823558896780014, 0.027837462723255157, -0.07018179446458817, -0.07364588975906372, 0.054462555795907974, -0.039616964757442474, 0.04036637395620346, 0.04791446775197983, -0.032401371747255325, -0.03806294500827789, 0.015731003135442734, -0.08363424241542816, 0.02530144900083542, 0.02170291543006897, -0.054994016885757446, 0.045999184250831604, -0.00010881293565034866, 0.04495524615049362, 0.0193133857101202, -0.05061025172472, 0.05746745690703392, 0.062292978167533875, -0.007061168551445007, 0.061280183494091034, -0.0437062606215477, 0.05521630868315697, -0.034093692898750305, 0.02671983279287815, -0.018044039607048035, -0.026144515722990036], [-1.0393645763397217, 0.7326496243476868, 0.5561566948890686, -0.05721805617213249, -1.3996871709823608, -0.6658182144165039, -0.677460253238678, -0.4246232807636261, -1.0652177333831787, -1.5229008197784424, 0.02097066305577755, -0.94889897108078, -0.40668898820877075, 0.47815632820129395, -0.9151662588119507, 0.49382197856903076, 0.6641886830329895, -0.9392006993293762, -1.1630064249038696, -1.3235833644866943, -0.43878141045570374, -1.3244891166687012, -0.8307697176933289, 0.5676253437995911, -1.0827155113220215, 0.6769221425056458, -1.159145712852478, -0.7634168267250061, -0.4672875702381134, 0.4527970254421234, -0.3622097671031952, 0.6198241114616394, -0.9429178237915039, 0.6792974472045898, -1.3789324760437012, -0.8845281004905701, -0.9411949515342712, 0.6615810990333557, 0.6128968000411987, -1.3218032121658325, -1.513508915901184, 0.5859597325325012, 0.6807054877281189, -0.01896396279335022, 0.6707587242126465, 0.6750407814979553, -0.8198869228363037, -0.545502245426178, 0.3030760586261749, -1.237006664276123, -0.678650975227356, 0.28698816895484924, 0.6941232681274414, 0.28627827763557434, -0.409454882144928, 0.6013005971908569, 0.5881573557853699, -0.8206763863563538, -0.603458046913147, 0.5896315574645996, 0.5836830735206604, 0.5522199869155884, 0.1621130257844925, 0.7594729661941528, 0.7751570343971252, -0.9618955850601196, 0.591893196105957, -1.224572777748108, 0.5677650570869446, 0.6976147294044495, -0.9557048678398132, 0.7020875215530396, 0.6605403423309326, 0.5012776851654053, -1.2733136415481567, -0.4795818030834198, -1.0727674961090088, -1.285761833190918, -1.5464507341384888, -1.5778732299804688, -0.8727765083312988, 0.5375313758850098, 0.693224310874939, 0.6406687498092651, 0.7588986754417419, 0.1023067757487297, 0.6630428433418274, 0.6775224804878235, 0.5368326306343079, 0.612802267074585, -1.4403177499771118, 0.07053899765014648, 0.6207060217857361, 0.5478901267051697, 0.7203792333602905, -0.856217622756958, -1.0686016082763672, 0.753665566444397, -1.097603440284729, 0.6035028100013733, 0.5908762812614441, 0.5781180262565613, 0.226193368434906, -0.6618855595588684, 0.39102861285209656, 0.6478854417800903, -0.17643067240715027, 0.7080233097076416, 0.8493192195892334, -1.17225980758667, -0.9973057508468628, 0.6936405897140503, 0.6338064670562744, 0.7242881655693054, -0.12879616022109985, 0.7324828505516052, -1.4129517078399658, 0.0039824326522648335, 0.49469396471977234, 0.3991695046424866, 0.6380200386047363, -0.6983057856559753, -0.6450813412666321, 0.6319277286529541, -0.9596899151802063, 0.7139259576797485, -0.8603476881980896, 0.5903584957122803], [-1.2957812547683716, 0.5411133170127869, 0.727703869342804, -0.06616495549678802, -1.2975120544433594, 0.05398222431540489, -0.9121333956718445, 0.005170951131731272, -0.6775386929512024, -1.1469804048538208, 0.04964890703558922, -0.674606204032898, -0.7025988101959229, 0.7919769883155823, -0.9182543754577637, 0.7857166528701782, 0.9338566660881042, -0.45010408759117126, -1.258071780204773, -1.378614902496338, -0.02575719729065895, -1.523301362991333, -0.9445839524269104, 0.7068055868148804, -0.536645770072937, 0.5739396214485168, -0.8626728653907776, -0.2760220170021057, 0.047845788300037384, 0.6304918527603149, 0.21318559348583221, 0.5966162085533142, -0.8652116060256958, 0.6445431113243103, -1.1796568632125854, -1.2381330728530884, -0.8575336933135986, 1.086178183555603, 0.4205680787563324, -1.1100883483886719, -1.6679810285568237, 0.5095178484916687, 0.5188893675804138, -0.06560817360877991, 1.0897536277770996, 0.6252245903015137, -0.9855445027351379, 0.17117926478385925, 0.3604377806186676, -1.2565771341323853, 0.15656480193138123, -0.044470611959695816, 0.6482099294662476, 0.174985870718956, -0.5221935510635376, 0.9657784104347229, 0.7235939502716064, -0.18869838118553162, -0.7777301073074341, 0.6607987284660339, 0.28982818126678467, 0.4457516074180603, -0.015316775999963284, 0.8067418336868286, 0.6942354440689087, -0.7802093625068665, 0.9580634236335754, -1.1777230501174927, 0.9978294372558594, 0.8730940818786621, -0.532566487789154, 0.8604434132575989, 0.9101138710975647, 0.8388264179229736, -0.9526277184486389, 0.12139390408992767, -1.0352363586425781, -0.7092230916023254, -1.2998830080032349, -1.6008938550949097, -0.5303839445114136, 0.6295919418334961, 1.0925066471099854, 0.8749401569366455, 0.7208760380744934, 0.24341823160648346, 0.8188520073890686, 0.6219382882118225, 0.6887972354888916, 0.8280494809150696, -1.6138595342636108, -0.007718750275671482, 0.8666458129882812, 0.6803402900695801, 0.9273766279220581, -0.9965294003486633, -1.0479114055633545, 0.7218561172485352, -1.0885064601898193, 0.6282016634941101, 0.6159654855728149, 0.7173053026199341, 0.23469175398349762, -0.07215822488069534, 0.3231489062309265, 0.7687675356864929, 0.37293609976768494, 0.852867841720581, 0.6809340715408325, -1.529679298400879, -0.4147900342941284, 0.5986130833625793, 0.5768177509307861, 1.0264592170715332, -0.6068013310432434, 1.0832979679107666, -1.5024563074111938, 0.5288572311401367, 0.3334127366542816, 0.5275766253471375, 0.6209302544593811, -0.8445654511451721, 0.07391547411680222, 0.9758567810058594, -0.8036148548126221, 0.5109970569610596, -0.12669937312602997, 0.6645101308822632], [-1.026219367980957, 0.6027041673660278, 0.6305404901504517, 0.061940282583236694, -1.5036768913269043, -0.7103517055511475, 